<?xml version="1.0"?>
<opencv_storage>
<cascade>
  <stageType>BOOST</stageType>
  <featureType>HAAR</featureType>
  <height>32</height>
  <width>32</width>
  <stageParams>
    <boostType>GAB</boostType>
    <minHitRate>9.9500000476837158e-01</minHitRate>
    <maxFalseAlarm>5.0000000000000000e-01</maxFalseAlarm>
    <weightTrimRate>9.4999998807907104e-01</weightTrimRate>
    <maxDepth>1</maxDepth>
    <maxWeakCount>100</maxWeakCount></stageParams>
  <featureParams>
    <maxCatCount>0</maxCatCount>
    <featSize>1</featSize>
    <mode>BASIC</mode></featureParams>
  <stageNum>13</stageNum>
  <stages>
    <!-- stage 0 -->
    <_>
      <maxWeakCount>4</maxWeakCount>
      <stageThreshold>-1.3160532712936401e+00</stageThreshold>
      <weakClassifiers>
        <_>
          <internalNodes>
            0 -1 52 -7.8166145831346512e-03</internalNodes>
          <leafValues>
            -2.7027027681469917e-02 -8.7018257379531860e-01</leafValues></_>
        <_>
          <internalNodes>
            0 -1 45 -3.3656926825642586e-03</internalNodes>
          <leafValues>
            5.6712186336517334e-01 -5.6397616863250732e-01</leafValues></_>
        <_>
          <internalNodes>
            0 -1 49 7.1694827056489885e-05</internalNodes>
          <leafValues>
            2.0402354001998901e-01 -8.3568340539932251e-01</leafValues></_>
        <_>
          <internalNodes>
            0 -1 69 -1.0750975925475359e-03</internalNodes>
          <leafValues>
            -9.2907363176345825e-01 1.4347240328788757e-01</leafValues></_></weakClassifiers></_>
    <!-- stage 1 -->
    <_>
      <maxWeakCount>6</maxWeakCount>
      <stageThreshold>-1.4891482591629028e+00</stageThreshold>
      <weakClassifiers>
        <_>
          <internalNodes>
            0 -1 33 -1.7670446634292603e-01</internalNodes>
          <leafValues>
            3.3333334326744080e-01 -8.4466022253036499e-01</leafValues></_>
        <_>
          <internalNodes>
            0 -1 23 -5.6762639433145523e-02</internalNodes>
          <leafValues>
            3.1522145867347717e-01 -5.6543838977813721e-01</leafValues></_>
        <_>
          <internalNodes>
            0 -1 27 -8.0026971409097314e-04</internalNodes>
          <leafValues>
            -1. 1.4853693544864655e-01</leafValues></_>
        <_>
          <internalNodes>
            0 -1 36 -2.4212440475821495e-03</internalNodes>
          <leafValues>
            4.8904448747634888e-01 -3.7912377715110779e-01</leafValues></_>
        <_>
          <internalNodes>
            0 -1 35 2.6726140640676022e-03</internalNodes>
          <leafValues>
            -2.5065049529075623e-01 7.1054738759994507e-01</leafValues></_>
        <_>
          <internalNodes>
            0 -1 43 3.5332861443748698e-05</internalNodes>
          <leafValues>
            4.0218770503997803e-01 -4.4650062918663025e-01</leafValues></_></weakClassifiers></_>
    <!-- stage 2 -->
    <_>
      <maxWeakCount>6</maxWeakCount>
      <stageThreshold>-1.7896711826324463e+00</stageThreshold>
      <weakClassifiers>
        <_>
          <internalNodes>
            0 -1 34 -1.5355944633483887e-02</internalNodes>
          <leafValues>
            6.0000002384185791e-01 -8.3846151828765869e-01</leafValues></_>
        <_>
          <internalNodes>
            0 -1 37 1.3583397492766380e-02</internalNodes>
          <leafValues>
            -6.6649270057678223e-01 4.6990018337965012e-02</leafValues></_>
        <_>
          <internalNodes>
            0 -1 51 1.2525754282251000e-03</internalNodes>
          <leafValues>
            -4.2250770330429077e-01 4.2992046475410461e-01</leafValues></_>
        <_>
          <internalNodes>
            0 -1 16 -5.4517999524250627e-04</internalNodes>
          <leafValues>
            -9.3096482753753662e-01 1.8699966371059418e-01</leafValues></_>
        <_>
          <internalNodes>
            0 -1 46 -2.8762065339833498e-03</internalNodes>
          <leafValues>
            6.0130989551544189e-01 -3.2799187302589417e-01</leafValues></_>
        <_>
          <internalNodes>
            0 -1 30 -1.3006659224629402e-02</internalNodes>
          <leafValues>
            4.6156165003776550e-01 -4.3469968438148499e-01</leafValues></_></weakClassifiers></_>
    <!-- stage 3 -->
    <_>
      <maxWeakCount>6</maxWeakCount>
      <stageThreshold>-1.3043991327285767e+00</stageThreshold>
      <weakClassifiers>
        <_>
          <internalNodes>
            0 -1 26 3.1816177070140839e-03</internalNodes>
          <leafValues>
            -8.4496122598648071e-01 4.2857143282890320e-01</leafValues></_>
        <_>
          <internalNodes>
            0 -1 53 -5.7719233445823193e-03</internalNodes>
          <leafValues>
            3.8176640868186951e-01 -5.4442971944808960e-01</leafValues></_>
        <_>
          <internalNodes>
            0 -1 63 -6.6009676083922386e-04</internalNodes>
          <leafValues>
            -7.6799380779266357e-01 1.8341173231601715e-01</leafValues></_>
        <_>
          <internalNodes>
            0 -1 58 3.5772311093751341e-05</internalNodes>
          <leafValues>
            2.3949894309043884e-01 -6.2286317348480225e-01</leafValues></_>
        <_>
          <internalNodes>
            0 -1 71 2.2368340069078840e-05</internalNodes>
          <leafValues>
            2.5387087464332581e-01 -6.8811750411987305e-01</leafValues></_>
        <_>
          <internalNodes>
            0 -1 14 1.2691095471382141e-03</internalNodes>
          <leafValues>
            -4.9337625503540039e-01 3.5019871592521667e-01</leafValues></_></weakClassifiers></_>
    <!-- stage 4 -->
    <_>
      <maxWeakCount>6</maxWeakCount>
      <stageThreshold>-1.3184926509857178e+00</stageThreshold>
      <weakClassifiers>
        <_>
          <internalNodes>
            0 -1 44 1.6770204529166222e-03</internalNodes>
          <leafValues>
            -8.4108525514602661e-01 2.8571429848670959e-01</leafValues></_>
        <_>
          <internalNodes>
            0 -1 41 5.2243121899664402e-04</internalNodes>
          <leafValues>
            -6.4072608947753906e-01 8.8333040475845337e-02</leafValues></_>
        <_>
          <internalNodes>
            0 -1 60 4.5328750275075436e-04</internalNodes>
          <leafValues>
            -5.7748639583587646e-01 2.4495813250541687e-01</leafValues></_>
        <_>
          <internalNodes>
            0 -1 12 -1.0035292689281050e-05</internalNodes>
          <leafValues>
            -5.9594053030014038e-01 2.5455668568611145e-01</leafValues></_>
        <_>
          <internalNodes>
            0 -1 67 -7.4656813922047149e-06</internalNodes>
          <leafValues>
            -5.5996721982955933e-01 2.7748057246208191e-01</leafValues></_>
        <_>
          <internalNodes>
            0 -1 3 -2.7919409330934286e-04</internalNodes>
          <leafValues>
            3.5375931859016418e-01 -4.9223855137825012e-01</leafValues></_></weakClassifiers></_>
    <!-- stage 5 -->
    <_>
      <maxWeakCount>7</maxWeakCount>
      <stageThreshold>-1.3492388725280762e+00</stageThreshold>
      <weakClassifiers>
        <_>
          <internalNodes>
            0 -1 22 -7.2546163573861122e-03</internalNodes>
          <leafValues>
            7.5000000000000000e-01 -8.3524906635284424e-01</leafValues></_>
        <_>
          <internalNodes>
            0 -1 21 9.0799303725361824e-03</internalNodes>
          <leafValues>
            -4.8809602856636047e-01 5.8585864305496216e-01</leafValues></_>
        <_>
          <internalNodes>
            0 -1 9 -6.7933680838905275e-05</internalNodes>
          <leafValues>
            -6.7638874053955078e-01 2.5530299544334412e-01</leafValues></_>
        <_>
          <internalNodes>
            0 -1 68 2.0247993234079331e-05</internalNodes>
          <leafValues>
            2.4025380611419678e-01 -6.7431926727294922e-01</leafValues></_>
        <_>
          <internalNodes>
            0 -1 8 -2.3055352357914671e-05</internalNodes>
          <leafValues>
            -6.3440388441085815e-01 2.5760155916213989e-01</leafValues></_>
        <_>
          <internalNodes>
            0 -1 48 -6.3296973705291748e-02</internalNodes>
          <leafValues>
            6.7394262552261353e-01 -2.6911595463752747e-01</leafValues></_>
        <_>
          <internalNodes>
            0 -1 5 4.3695896863937378e-02</internalNodes>
          <leafValues>
            -2.4892030656337738e-01 6.7857128381729126e-01</leafValues></_></weakClassifiers></_>
    <!-- stage 6 -->
    <_>
      <maxWeakCount>6</maxWeakCount>
      <stageThreshold>-1.5749948024749756e+00</stageThreshold>
      <weakClassifiers>
        <_>
          <internalNodes>
            0 -1 24 2.5577656924724579e-02</internalNodes>
          <leafValues>
            -8.3206105232238770e-01 1.</leafValues></_>
        <_>
          <internalNodes>
            0 -1 40 6.6448356956243515e-03</internalNodes>
          <leafValues>
            -5.0201481580734253e-01 4.2614370584487915e-01</leafValues></_>
        <_>
          <internalNodes>
            0 -1 7 -8.2549768194439821e-06</internalNodes>
          <leafValues>
            -6.9560539722442627e-01 2.1714250743389130e-01</leafValues></_>
        <_>
          <internalNodes>
            0 -1 55 -1.4631992671638727e-03</internalNodes>
          <leafValues>
            5.1471805572509766e-01 -2.8807970881462097e-01</leafValues></_>
        <_>
          <internalNodes>
            0 -1 42 8.7337737204506993e-04</internalNodes>
          <leafValues>
            -3.9794969558715820e-01 3.5888919234275818e-01</leafValues></_>
        <_>
          <internalNodes>
            0 -1 4 6.8884757638443261e-05</internalNodes>
          <leafValues>
            3.5410037636756897e-01 -5.2887099981307983e-01</leafValues></_></weakClassifiers></_>
    <!-- stage 7 -->
    <_>
      <maxWeakCount>6</maxWeakCount>
      <stageThreshold>-1.4096622467041016e+00</stageThreshold>
      <weakClassifiers>
        <_>
          <internalNodes>
            0 -1 18 -7.1704285219311714e-03</internalNodes>
          <leafValues>
            8.0000001192092896e-01 -8.4230768680572510e-01</leafValues></_>
        <_>
          <internalNodes>
            0 -1 50 4.2144377948716283e-04</internalNodes>
          <leafValues>
            -5.6878548860549927e-01 1.7345218360424042e-01</leafValues></_>
        <_>
          <internalNodes>
            0 -1 20 -7.3041446739807725e-05</internalNodes>
          <leafValues>
            -7.0541292428970337e-01 1.9965754449367523e-01</leafValues></_>
        <_>
          <internalNodes>
            0 -1 17 2.7472933652461506e-05</internalNodes>
          <leafValues>
            -4.9686020612716675e-01 2.9183098673820496e-01</leafValues></_>
        <_>
          <internalNodes>
            0 -1 1 -1.4447409193962812e-04</internalNodes>
          <leafValues>
            -1. 1.8583583831787109e-01</leafValues></_>
        <_>
          <internalNodes>
            0 -1 57 3.0254217563197017e-04</internalNodes>
          <leafValues>
            1.1279776692390442e-01 -1.</leafValues></_></weakClassifiers></_>
    <!-- stage 8 -->
    <_>
      <maxWeakCount>5</maxWeakCount>
      <stageThreshold>-1.2763867378234863e+00</stageThreshold>
      <weakClassifiers>
        <_>
          <internalNodes>
            0 -1 65 3.2512068748474121e-02</internalNodes>
          <leafValues>
            -8.3206105232238770e-01 1.</leafValues></_>
        <_>
          <internalNodes>
            0 -1 64 -1.6367221251130104e-03</internalNodes>
          <leafValues>
            3.0408537387847900e-01 -5.6500738859176636e-01</leafValues></_>
        <_>
          <internalNodes>
            0 -1 11 -5.4221611935645342e-04</internalNodes>
          <leafValues>
            4.0304228663444519e-01 -3.8384038209915161e-01</leafValues></_>
        <_>
          <internalNodes>
            0 -1 13 -1.3221744447946548e-03</internalNodes>
          <leafValues>
            3.4560224413871765e-01 -4.3425476551055908e-01</leafValues></_>
        <_>
          <internalNodes>
            0 -1 70 1.7491611652076244e-04</internalNodes>
          <leafValues>
            1.5891985595226288e-01 -9.8138201236724854e-01</leafValues></_></weakClassifiers></_>
    <!-- stage 9 -->
    <_>
      <maxWeakCount>5</maxWeakCount>
      <stageThreshold>-1.2005521059036255e+00</stageThreshold>
      <weakClassifiers>
        <_>
          <internalNodes>
            0 -1 6 1.8858287483453751e-02</internalNodes>
          <leafValues>
            -8.3493280410766602e-01 5.5555558204650879e-01</leafValues></_>
        <_>
          <internalNodes>
            0 -1 54 4.0823854506015778e-02</internalNodes>
          <leafValues>
            -5.5813908576965332e-01 4.2088410258293152e-01</leafValues></_>
        <_>
          <internalNodes>
            0 -1 31 -4.0975955198518932e-04</internalNodes>
          <leafValues>
            3.7171804904937744e-01 -4.3549433350563049e-01</leafValues></_>
        <_>
          <internalNodes>
            0 -1 0 9.5979182515293360e-04</internalNodes>
          <leafValues>
            2.4177056550979614e-01 -5.9307050704956055e-01</leafValues></_>
        <_>
          <internalNodes>
            0 -1 47 -6.6085916478186846e-04</internalNodes>
          <leafValues>
            4.1387224197387695e-01 -4.0800505876541138e-01</leafValues></_></weakClassifiers></_>
    <!-- stage 10 -->
    <_>
      <maxWeakCount>4</maxWeakCount>
      <stageThreshold>-1.1763309240341187e+00</stageThreshold>
      <weakClassifiers>
        <_>
          <internalNodes>
            0 -1 10 -1.7718639224767685e-02</internalNodes>
          <leafValues>
            1. -8.3556407690048218e-01</leafValues></_>
        <_>
          <internalNodes>
            0 -1 32 -5.4435253143310547e-02</internalNodes>
          <leafValues>
            3.8707622885704041e-01 -5.5946749448776245e-01</leafValues></_>
        <_>
          <internalNodes>
            0 -1 28 -9.5555456937290728e-05</internalNodes>
          <leafValues>
            -9.3906533718109131e-01 1.8445169925689697e-01</leafValues></_>
        <_>
          <internalNodes>
            0 -1 2 -7.6224980875849724e-04</internalNodes>
          <leafValues>
            -7.0438444614410400e-01 2.1122226119041443e-01</leafValues></_></weakClassifiers></_>
    <!-- stage 11 -->
    <_>
      <maxWeakCount>6</maxWeakCount>
      <stageThreshold>-1.6846926212310791e+00</stageThreshold>
      <weakClassifiers>
        <_>
          <internalNodes>
            0 -1 72 -5.3050033748149872e-03</internalNodes>
          <leafValues>
            1. -8.3908045291900635e-01</leafValues></_>
        <_>
          <internalNodes>
            0 -1 66 5.4697692394256592e-04</internalNodes>
          <leafValues>
            -5.5704694986343384e-01 3.6810228228569031e-01</leafValues></_>
        <_>
          <internalNodes>
            0 -1 59 2.8133674641139805e-04</internalNodes>
          <leafValues>
            2.0010276138782501e-01 -8.4762644767761230e-01</leafValues></_>
        <_>
          <internalNodes>
            0 -1 29 1.0502687655389309e-03</internalNodes>
          <leafValues>
            -3.0981692671775818e-01 6.0930556058883667e-01</leafValues></_>
        <_>
          <internalNodes>
            0 -1 19 -6.8259589374065399e-02</internalNodes>
          <leafValues>
            -7.7044910192489624e-01 2.8827029466629028e-01</leafValues></_>
        <_>
          <internalNodes>
            0 -1 38 -3.1660245731472969e-03</internalNodes>
          <leafValues>
            5.2295809984207153e-01 -4.6712136268615723e-01</leafValues></_></weakClassifiers></_>
    <!-- stage 12 -->
    <_>
      <maxWeakCount>6</maxWeakCount>
      <stageThreshold>-1.5766007900238037e+00</stageThreshold>
      <weakClassifiers>
        <_>
          <internalNodes>
            0 -1 61 -6.9533465430140495e-03</internalNodes>
          <leafValues>
            1. -8.4971100091934204e-01</leafValues></_>
        <_>
          <internalNodes>
            0 -1 39 1.1648924555629492e-03</internalNodes>
          <leafValues>
            -6.0529369115829468e-01 4.9620315432548523e-01</leafValues></_>
        <_>
          <internalNodes>
            0 -1 62 -6.3173385569825768e-04</internalNodes>
          <leafValues>
            5.8648866415023804e-01 -4.2968085408210754e-01</leafValues></_>
        <_>
          <internalNodes>
            0 -1 56 -1.4393686433322728e-04</internalNodes>
          <leafValues>
            5.3636455535888672e-01 -4.4147795438766479e-01</leafValues></_>
        <_>
          <internalNodes>
            0 -1 25 -1.8794985953718424e-04</internalNodes>
          <leafValues>
            -6.1255693435668945e-01 3.9921554923057556e-01</leafValues></_>
        <_>
          <internalNodes>
            0 -1 15 -1.3338280041352846e-05</internalNodes>
          <leafValues>
            -6.2749540805816650e-01 4.5705682039260864e-01</leafValues></_></weakClassifiers></_></stages>
  <features>
    <_>
      <rects>
        <_>
          0 18 2 12 -1.</_>
        <_>
          0 24 2 6 2.</_></rects>
      <tilted>0</tilted></_>
    <_>
      <rects>
        <_>
          0 20 2 2 -1.</_>
        <_>
          0 20 1 1 2.</_>
        <_>
          1 21 1 1 2.</_></rects>
      <tilted>0</tilted></_>
    <_>
      <rects>
        <_>
          1 9 26 2 -1.</_>
        <_>
          1 9 13 1 2.</_>
        <_>
          14 10 13 1 2.</_></rects>
      <tilted>0</tilted></_>
    <_>
      <rects>
        <_>
          1 26 20 2 -1.</_>
        <_>
          1 26 10 1 2.</_>
        <_>
          11 27 10 1 2.</_></rects>
      <tilted>0</tilted></_>
    <_>
      <rects>
        <_>
          2 0 3 3 -1.</_>
        <_>
          2 1 3 1 3.</_></rects>
      <tilted>0</tilted></_>
    <_>
      <rects>
        <_>
          2 22 11 10 -1.</_>
        <_>
          2 27 11 5 2.</_></rects>
      <tilted>0</tilted></_>
    <_>
      <rects>
        <_>
          2 28 28 2 -1.</_>
        <_>
          2 29 28 1 2.</_></rects>
      <tilted>0</tilted></_>
    <_>
      <rects>
        <_>
          3 0 10 3 -1.</_>
        <_>
          3 1 10 1 3.</_></rects>
      <tilted>0</tilted></_>
    <_>
      <rects>
        <_>
          3 1 4 2 -1.</_>
        <_>
          3 1 2 1 2.</_>
        <_>
          5 2 2 1 2.</_></rects>
      <tilted>0</tilted></_>
    <_>
      <rects>
        <_>
          3 14 2 12 -1.</_>
        <_>
          3 14 1 6 2.</_>
        <_>
          4 20 1 6 2.</_></rects>
      <tilted>0</tilted></_>
    <_>
      <rects>
        <_>
          4 8 2 22 -1.</_>
        <_>
          5 8 1 22 2.</_></rects>
      <tilted>0</tilted></_>
    <_>
      <rects>
        <_>
          5 7 6 2 -1.</_>
        <_>
          7 7 2 2 3.</_></rects>
      <tilted>0</tilted></_>
    <_>
      <rects>
        <_>
          6 3 26 2 -1.</_>
        <_>
          6 3 13 1 2.</_>
        <_>
          19 4 13 1 2.</_></rects>
      <tilted>0</tilted></_>
    <_>
      <rects>
        <_>
          6 21 16 2 -1.</_>
        <_>
          14 21 8 2 2.</_></rects>
      <tilted>0</tilted></_>
    <_>
      <rects>
        <_>
          7 5 4 12 -1.</_>
        <_>
          7 9 4 4 3.</_></rects>
      <tilted>0</tilted></_>
    <_>
      <rects>
        <_>
          7 14 2 12 -1.</_>
        <_>
          7 14 1 6 2.</_>
        <_>
          8 20 1 6 2.</_></rects>
      <tilted>0</tilted></_>
    <_>
      <rects>
        <_>
          7 29 6 1 -1.</_>
        <_>
          9 29 2 1 3.</_></rects>
      <tilted>0</tilted></_>
    <_>
      <rects>
        <_>
          9 0 2 10 -1.</_>
        <_>
          9 0 1 5 2.</_>
        <_>
          10 5 1 5 2.</_></rects>
      <tilted>0</tilted></_>
    <_>
      <rects>
        <_>
          9 28 11 2 -1.</_>
        <_>
          9 29 11 1 2.</_></rects>
      <tilted>0</tilted></_>
    <_>
      <rects>
        <_>
          10 0 12 29 -1.</_>
        <_>
          16 0 6 29 2.</_></rects>
      <tilted>0</tilted></_>
    <_>
      <rects>
        <_>
          10 1 22 2 -1.</_>
        <_>
          10 1 11 1 2.</_>
        <_>
          21 2 11 1 2.</_></rects>
      <tilted>0</tilted></_>
    <_>
      <rects>
        <_>
          10 6 3 21 -1.</_>
        <_>
          11 6 1 21 3.</_></rects>
      <tilted>0</tilted></_>
    <_>
      <rects>
        <_>
          10 6 4 4 -1.</_>
        <_>
          10 6 2 2 2.</_>
        <_>
          12 8 2 2 2.</_></rects>
      <tilted>0</tilted></_>
    <_>
      <rects>
        <_>
          10 7 15 15 -1.</_>
        <_>
          10 12 15 5 3.</_></rects>
      <tilted>0</tilted></_>
    <_>
      <rects>
        <_>
          10 16 6 7 -1.</_>
        <_>
          12 16 2 7 3.</_></rects>
      <tilted>0</tilted></_>
    <_>
      <rects>
        <_>
          10 16 6 2 -1.</_>
        <_>
          10 16 3 1 2.</_>
        <_>
          13 17 3 1 2.</_></rects>
      <tilted>0</tilted></_>
    <_>
      <rects>
        <_>
          10 21 3 2 -1.</_>
        <_>
          11 21 1 2 3.</_></rects>
      <tilted>0</tilted></_>
    <_>
      <rects>
        <_>
          10 31 9 1 -1.</_>
        <_>
          13 31 3 1 3.</_></rects>
      <tilted>0</tilted></_>
    <_>
      <rects>
        <_>
          11 1 3 1 -1.</_>
        <_>
          12 1 1 1 3.</_></rects>
      <tilted>0</tilted></_>
    <_>
      <rects>
        <_>
          11 6 5 3 -1.</_>
        <_>
          11 7 5 1 3.</_></rects>
      <tilted>0</tilted></_>
    <_>
      <rects>
        <_>
          11 21 18 10 -1.</_>
        <_>
          11 21 9 5 2.</_>
        <_>
          20 26 9 5 2.</_></rects>
      <tilted>0</tilted></_>
    <_>
      <rects>
        <_>
          11 28 6 2 -1.</_>
        <_>
          11 29 6 1 2.</_></rects>
      <tilted>0</tilted></_>
    <_>
      <rects>
        <_>
          12 6 13 15 -1.</_>
        <_>
          12 11 13 5 3.</_></rects>
      <tilted>0</tilted></_>
    <_>
      <rects>
        <_>
          13 8 10 24 -1.</_>
        <_>
          13 16 10 8 3.</_></rects>
      <tilted>0</tilted></_>
    <_>
      <rects>
        <_>
          13 11 3 13 -1.</_>
        <_>
          14 11 1 13 3.</_></rects>
      <tilted>0</tilted></_>
    <_>
      <rects>
        <_>
          13 16 3 8 -1.</_>
        <_>
          14 16 1 8 3.</_></rects>
      <tilted>0</tilted></_>
    <_>
      <rects>
        <_>
          13 18 3 12 -1.</_>
        <_>
          14 18 1 12 3.</_></rects>
      <tilted>0</tilted></_>
    <_>
      <rects>
        <_>
          14 0 13 18 -1.</_>
        <_>
          14 6 13 6 3.</_></rects>
      <tilted>0</tilted></_>
    <_>
      <rects>
        <_>
          14 2 4 17 -1.</_>
        <_>
          16 2 2 17 2.</_></rects>
      <tilted>0</tilted></_>
    <_>
      <rects>
        <_>
          14 5 1 6 -1.</_>
        <_>
          14 7 1 2 3.</_></rects>
      <tilted>0</tilted></_>
    <_>
      <rects>
        <_>
          14 13 3 14 -1.</_>
        <_>
          15 13 1 14 3.</_></rects>
      <tilted>0</tilted></_>
    <_>
      <rects>
        <_>
          15 14 3 5 -1.</_>
        <_>
          16 14 1 5 3.</_></rects>
      <tilted>0</tilted></_>
    <_>
      <rects>
        <_>
          16 0 9 9 -1.</_>
        <_>
          19 0 3 9 3.</_></rects>
      <tilted>0</tilted></_>
    <_>
      <rects>
        <_>
          16 2 1 10 -1.</_>
        <_>
          16 7 1 5 2.</_></rects>
      <tilted>0</tilted></_>
    <_>
      <rects>
        <_>
          16 18 2 1 -1.</_>
        <_>
          17 18 1 1 2.</_></rects>
      <tilted>0</tilted></_>
    <_>
      <rects>
        <_>
          16 21 3 4 -1.</_>
        <_>
          17 21 1 4 3.</_></rects>
      <tilted>0</tilted></_>
    <_>
      <rects>
        <_>
          16 21 3 8 -1.</_>
        <_>
          17 21 1 8 3.</_></rects>
      <tilted>0</tilted></_>
    <_>
      <rects>
        <_>
          16 22 3 5 -1.</_>
        <_>
          17 22 1 5 3.</_></rects>
      <tilted>0</tilted></_>
    <_>
      <rects>
        <_>
          16 22 15 10 -1.</_>
        <_>
          16 27 15 5 2.</_></rects>
      <tilted>0</tilted></_>
    <_>
      <rects>
        <_>
          17 0 6 2 -1.</_>
        <_>
          17 0 3 1 2.</_>
        <_>
          20 1 3 1 2.</_></rects>
      <tilted>0</tilted></_>
    <_>
      <rects>
        <_>
          17 11 3 1 -1.</_>
        <_>
          18 11 1 1 3.</_></rects>
      <tilted>0</tilted></_>
    <_>
      <rects>
        <_>
          17 17 3 8 -1.</_>
        <_>
          18 17 1 8 3.</_></rects>
      <tilted>0</tilted></_>
    <_>
      <rects>
        <_>
          18 12 3 13 -1.</_>
        <_>
          19 12 1 13 3.</_></rects>
      <tilted>0</tilted></_>
    <_>
      <rects>
        <_>
          18 13 3 10 -1.</_>
        <_>
          19 13 1 10 3.</_></rects>
      <tilted>0</tilted></_>
    <_>
      <rects>
        <_>
          18 17 12 12 -1.</_>
        <_>
          18 23 12 6 2.</_></rects>
      <tilted>0</tilted></_>
    <_>
      <rects>
        <_>
          19 1 3 10 -1.</_>
        <_>
          20 1 1 10 3.</_></rects>
      <tilted>0</tilted></_>
    <_>
      <rects>
        <_>
          20 14 5 4 -1.</_>
        <_>
          20 16 5 2 2.</_></rects>
      <tilted>0</tilted></_>
    <_>
      <rects>
        <_>
          20 23 2 4 -1.</_>
        <_>
          20 23 1 2 2.</_>
        <_>
          21 25 1 2 2.</_></rects>
      <tilted>0</tilted></_>
    <_>
      <rects>
        <_>
          21 15 6 2 -1.</_>
        <_>
          21 15 3 1 2.</_>
        <_>
          24 16 3 1 2.</_></rects>
      <tilted>0</tilted></_>
    <_>
      <rects>
        <_>
          22 3 10 2 -1.</_>
        <_>
          22 3 5 1 2.</_>
        <_>
          27 4 5 1 2.</_></rects>
      <tilted>0</tilted></_>
    <_>
      <rects>
        <_>
          22 11 4 11 -1.</_>
        <_>
          24 11 2 11 2.</_></rects>
      <tilted>0</tilted></_>
    <_>
      <rects>
        <_>
          22 23 6 6 -1.</_>
        <_>
          24 23 2 6 3.</_></rects>
      <tilted>0</tilted></_>
    <_>
      <rects>
        <_>
          23 14 6 14 -1.</_>
        <_>
          25 14 2 14 3.</_></rects>
      <tilted>0</tilted></_>
    <_>
      <rects>
        <_>
          24 21 3 11 -1.</_>
        <_>
          25 21 1 11 3.</_></rects>
      <tilted>0</tilted></_>
    <_>
      <rects>
        <_>
          25 21 3 11 -1.</_>
        <_>
          26 21 1 11 3.</_></rects>
      <tilted>0</tilted></_>
    <_>
      <rects>
        <_>
          26 6 5 8 -1.</_>
        <_>
          26 10 5 4 2.</_></rects>
      <tilted>0</tilted></_>
    <_>
      <rects>
        <_>
          26 19 2 4 -1.</_>
        <_>
          27 19 1 4 2.</_></rects>
      <tilted>0</tilted></_>
    <_>
      <rects>
        <_>
          28 9 3 3 -1.</_>
        <_>
          28 10 3 1 3.</_></rects>
      <tilted>0</tilted></_>
    <_>
      <rects>
        <_>
          28 21 1 3 -1.</_>
        <_>
          28 22 1 1 3.</_></rects>
      <tilted>0</tilted></_>
    <_>
      <rects>
        <_>
          29 10 2 6 -1.</_>
        <_>
          29 12 2 2 3.</_></rects>
      <tilted>0</tilted></_>
    <_>
      <rects>
        <_>
          30 15 2 1 -1.</_>
        <_>
          31 15 1 1 2.</_></rects>
      <tilted>0</tilted></_>
    <_>
      <rects>
        <_>
          30 27 2 2 -1.</_>
        <_>
          30 28 2 1 2.</_></rects>
      <tilted>0</tilted></_>
    <_>
      <rects>
        <_>
          30 27 2 4 -1.</_>
        <_>
          30 29 2 2 2.</_></rects>
      <tilted>0</tilted></_></features></cascade>
</opencv_storage>
