<?xml version="1.0"?>
<opencv_storage>
<cascade>
  <stageType>BOOST</stageType>
  <featureType>HAAR</featureType>
  <height>32</height>
  <width>32</width>
  <stageParams>
    <boostType>GAB</boostType>
    <minHitRate>9.9500000476837158e-01</minHitRate>
    <maxFalseAlarm>5.0000000000000000e-01</maxFalseAlarm>
    <weightTrimRate>9.4999998807907104e-01</weightTrimRate>
    <maxDepth>1</maxDepth>
    <maxWeakCount>100</maxWeakCount></stageParams>
  <featureParams>
    <maxCatCount>0</maxCatCount>
    <featSize>1</featSize>
    <mode>BASIC</mode></featureParams>
  <stageNum>20</stageNum>
  <stages>
    <!-- stage 0 -->
    <_>
      <maxWeakCount>5</maxWeakCount>
      <stageThreshold>-1.4389255046844482e+00</stageThreshold>
      <weakClassifiers>
        <_>
          <internalNodes>
            0 -1 62 2.4463113397359848e-02</internalNodes>
          <leafValues>
            -7.2332018613815308e-01 1.</leafValues></_>
        <_>
          <internalNodes>
            0 -1 53 2.4494444951415062e-03</internalNodes>
          <leafValues>
            -5.6044042110443115e-01 4.5072385668754578e-01</leafValues></_>
        <_>
          <internalNodes>
            0 -1 25 -2.8437716537155211e-04</internalNodes>
          <leafValues>
            -9.2854726314544678e-01 3.0201071500778198e-01</leafValues></_>
        <_>
          <internalNodes>
            0 -1 10 -7.5694799306802452e-05</internalNodes>
          <leafValues>
            -6.5893924236297607e-01 3.5858264565467834e-01</leafValues></_>
        <_>
          <internalNodes>
            0 -1 13 -2.7015418163500726e-04</internalNodes>
          <leafValues>
            -8.0940067768096924e-01 3.4402516484260559e-01</leafValues></_></weakClassifiers></_>
    <!-- stage 1 -->
    <_>
      <maxWeakCount>3</maxWeakCount>
      <stageThreshold>-4.4074273109436035e-01</stageThreshold>
      <weakClassifiers>
        <_>
          <internalNodes>
            0 -1 3 -5.7618495076894760e-02</internalNodes>
          <leafValues>
            5.5555558204650879e-01 -7.1200001239776611e-01</leafValues></_>
        <_>
          <internalNodes>
            0 -1 89 -2.0219403086230159e-04</internalNodes>
          <leafValues>
            -9.3299943208694458e-01 1.2231015413999557e-01</leafValues></_>
        <_>
          <internalNodes>
            0 -1 33 -7.9823727719485760e-04</internalNodes>
          <leafValues>
            -1. 1.4894710481166840e-01</leafValues></_></weakClassifiers></_>
    <!-- stage 2 -->
    <_>
      <maxWeakCount>3</maxWeakCount>
      <stageThreshold>-8.4228748083114624e-01</stageThreshold>
      <weakClassifiers>
        <_>
          <internalNodes>
            0 -1 14 9.2115595936775208e-02</internalNodes>
          <leafValues>
            -7.0312500000000000e-01 1.</leafValues></_>
        <_>
          <internalNodes>
            0 -1 74 1.7074764400604181e-05</internalNodes>
          <leafValues>
            -7.7062660455703735e-01 2.0256990194320679e-01</leafValues></_>
        <_>
          <internalNodes>
            0 -1 38 -5.4338783025741577e-02</internalNodes>
          <leafValues>
            6.8470984697341919e-01 -3.4173238277435303e-01</leafValues></_></weakClassifiers></_>
    <!-- stage 3 -->
    <_>
      <maxWeakCount>5</maxWeakCount>
      <stageThreshold>-1.0964254140853882e+00</stageThreshold>
      <weakClassifiers>
        <_>
          <internalNodes>
            0 -1 60 -3.4272824414074421e-03</internalNodes>
          <leafValues>
            4.1666665673255920e-01 -7.2950822114944458e-01</leafValues></_>
        <_>
          <internalNodes>
            0 -1 19 3.4880866296589375e-03</internalNodes>
          <leafValues>
            -4.7564297914505005e-01 4.2973986268043518e-01</leafValues></_>
        <_>
          <internalNodes>
            0 -1 34 -9.5254115876741707e-05</internalNodes>
          <leafValues>
            -8.4005743265151978e-01 2.4948643147945404e-01</leafValues></_>
        <_>
          <internalNodes>
            0 -1 64 -3.0289415735751390e-04</internalNodes>
          <leafValues>
            6.2633311748504639e-01 -3.5440874099731445e-01</leafValues></_>
        <_>
          <internalNodes>
            0 -1 83 -3.7190791772445664e-05</internalNodes>
          <leafValues>
            -6.9173473119735718e-01 3.7312874197959900e-01</leafValues></_></weakClassifiers></_>
    <!-- stage 4 -->
    <_>
      <maxWeakCount>5</maxWeakCount>
      <stageThreshold>-1.3207280635833740e+00</stageThreshold>
      <weakClassifiers>
        <_>
          <internalNodes>
            0 -1 52 -5.9191644191741943e-02</internalNodes>
          <leafValues>
            6.0000002384185791e-01 -7.2580647468566895e-01</leafValues></_>
        <_>
          <internalNodes>
            0 -1 57 2.8651935281231999e-04</internalNodes>
          <leafValues>
            2.1037071943283081e-01 -9.3408751487731934e-01</leafValues></_>
        <_>
          <internalNodes>
            0 -1 63 2.4663632735610008e-02</internalNodes>
          <leafValues>
            -5.5898702144622803e-01 6.2008309364318848e-01</leafValues></_>
        <_>
          <internalNodes>
            0 -1 33 7.4763043085113168e-04</internalNodes>
          <leafValues>
            4.8250433802604675e-01 -6.3906061649322510e-01</leafValues></_>
        <_>
          <internalNodes>
            0 -1 80 -1.2446878827176988e-04</internalNodes>
          <leafValues>
            -8.3143323659896851e-01 3.9275529980659485e-01</leafValues></_></weakClassifiers></_>
    <!-- stage 5 -->
    <_>
      <maxWeakCount>4</maxWeakCount>
      <stageThreshold>-7.8454917669296265e-01</stageThreshold>
      <weakClassifiers>
        <_>
          <internalNodes>
            0 -1 40 -1.1274492368102074e-02</internalNodes>
          <leafValues>
            1. -7.0980393886566162e-01</leafValues></_>
        <_>
          <internalNodes>
            0 -1 39 3.5035805194638669e-04</internalNodes>
          <leafValues>
            1.5913371741771698e-01 -1.</leafValues></_>
        <_>
          <internalNodes>
            0 -1 81 1.8012555665336549e-04</internalNodes>
          <leafValues>
            2.2727023065090179e-01 -9.1807866096496582e-01</leafValues></_>
        <_>
          <internalNodes>
            0 -1 58 -7.8431377187371254e-03</internalNodes>
          <leafValues>
            6.8419969081878662e-01 -4.1511768102645874e-01</leafValues></_></weakClassifiers></_>
    <!-- stage 6 -->
    <_>
      <maxWeakCount>4</maxWeakCount>
      <stageThreshold>-8.1375718116760254e-01</stageThreshold>
      <weakClassifiers>
        <_>
          <internalNodes>
            0 -1 16 -4.1101230308413506e-03</internalNodes>
          <leafValues>
            1. -6.8992245197296143e-01</leafValues></_>
        <_>
          <internalNodes>
            0 -1 39 -1.8225890016765334e-05</internalNodes>
          <leafValues>
            -6.9593417644500732e-01 2.2771400213241577e-01</leafValues></_>
        <_>
          <internalNodes>
            0 -1 23 -1.1468868469819427e-03</internalNodes>
          <leafValues>
            5.6924670934677124e-01 -4.0753841400146484e-01</leafValues></_>
        <_>
          <internalNodes>
            0 -1 78 -2.2726945462636650e-04</internalNodes>
          <leafValues>
            -9.2079538106918335e-01 2.8047996759414673e-01</leafValues></_></weakClassifiers></_>
    <!-- stage 7 -->
    <_>
      <maxWeakCount>6</maxWeakCount>
      <stageThreshold>-1.1670031547546387e+00</stageThreshold>
      <weakClassifiers>
        <_>
          <internalNodes>
            0 -1 61 -7.9277278855443001e-03</internalNodes>
          <leafValues>
            6.1904764175415039e-01 -7.3279350996017456e-01</leafValues></_>
        <_>
          <internalNodes>
            0 -1 55 -3.5409564152359962e-03</internalNodes>
          <leafValues>
            7.6123172044754028e-01 -4.2674061655998230e-01</leafValues></_>
        <_>
          <internalNodes>
            0 -1 27 -7.5576310337055475e-05</internalNodes>
          <leafValues>
            -8.1572878360748291e-01 3.6267825961112976e-01</leafValues></_>
        <_>
          <internalNodes>
            0 -1 49 1.5050608199089766e-03</internalNodes>
          <leafValues>
            -4.0067499876022339e-01 6.6256040334701538e-01</leafValues></_>
        <_>
          <internalNodes>
            0 -1 42 -1.3697515241801739e-03</internalNodes>
          <leafValues>
            6.8488204479217529e-01 -3.4075880050659180e-01</leafValues></_>
        <_>
          <internalNodes>
            0 -1 2 -4.2020962573587894e-03</internalNodes>
          <leafValues>
            4.5226100087165833e-01 -6.5435427427291870e-01</leafValues></_></weakClassifiers></_>
    <!-- stage 8 -->
    <_>
      <maxWeakCount>4</maxWeakCount>
      <stageThreshold>-8.0384778976440430e-01</stageThreshold>
      <weakClassifiers>
        <_>
          <internalNodes>
            0 -1 71 6.9760382175445557e-02</internalNodes>
          <leafValues>
            -7.1659916639328003e-01 4.2857143282890320e-01</leafValues></_>
        <_>
          <internalNodes>
            0 -1 76 -1.0554389155004174e-04</internalNodes>
          <leafValues>
            -8.2549709081649780e-01 1.9877783954143524e-01</leafValues></_>
        <_>
          <internalNodes>
            0 -1 82 -9.3834550352767110e-04</internalNodes>
          <leafValues>
            -9.1325968503952026e-01 1.7499080300331116e-01</leafValues></_>
        <_>
          <internalNodes>
            0 -1 56 -1.1874330230057240e-03</internalNodes>
          <leafValues>
            6.3064634799957275e-01 -4.6101722121238708e-01</leafValues></_></weakClassifiers></_>
    <!-- stage 9 -->
    <_>
      <maxWeakCount>4</maxWeakCount>
      <stageThreshold>-8.3850109577178955e-01</stageThreshold>
      <weakClassifiers>
        <_>
          <internalNodes>
            0 -1 50 5.6325150653719902e-03</internalNodes>
          <leafValues>
            -7.6824033260345459e-01 3.1428572535514832e-01</leafValues></_>
        <_>
          <internalNodes>
            0 -1 44 -3.6564993206411600e-03</internalNodes>
          <leafValues>
            4.2987322807312012e-01 -6.1442399024963379e-01</leafValues></_>
        <_>
          <internalNodes>
            0 -1 84 -3.7786710890941322e-05</internalNodes>
          <leafValues>
            -7.7968120574951172e-01 3.4778422117233276e-01</leafValues></_>
        <_>
          <internalNodes>
            0 -1 88 4.0961887862067670e-05</internalNodes>
          <leafValues>
            3.1401589512825012e-01 -8.0297887325286865e-01</leafValues></_></weakClassifiers></_>
    <!-- stage 10 -->
    <_>
      <maxWeakCount>5</maxWeakCount>
      <stageThreshold>-1.1696532964706421e+00</stageThreshold>
      <weakClassifiers>
        <_>
          <internalNodes>
            0 -1 21 4.1416008025407791e-02</internalNodes>
          <leafValues>
            -6.9649803638458252e-01 1.</leafValues></_>
        <_>
          <internalNodes>
            0 -1 86 2.3475215130019933e-05</internalNodes>
          <leafValues>
            1.1608894169330597e-01 -8.5092991590499878e-01</leafValues></_>
        <_>
          <internalNodes>
            0 -1 72 -2.7308356948196888e-05</internalNodes>
          <leafValues>
            3.6624574661254883e-01 -5.4373681545257568e-01</leafValues></_>
        <_>
          <internalNodes>
            0 -1 35 -1.4138142578303814e-03</internalNodes>
          <leafValues>
            5.1370644569396973e-01 -4.2203906178474426e-01</leafValues></_>
        <_>
          <internalNodes>
            0 -1 41 9.2715235950890929e-06</internalNodes>
          <leafValues>
            -5.2859479188919067e-01 3.7653174996376038e-01</leafValues></_></weakClassifiers></_>
    <!-- stage 11 -->
    <_>
      <maxWeakCount>5</maxWeakCount>
      <stageThreshold>-1.0779005289077759e+00</stageThreshold>
      <weakClassifiers>
        <_>
          <internalNodes>
            0 -1 77 1.1620327830314636e-02</internalNodes>
          <leafValues>
            -7.3333334922790527e-01 2.8571429848670959e-01</leafValues></_>
        <_>
          <internalNodes>
            0 -1 15 2.0759047940373421e-02</internalNodes>
          <leafValues>
            -3.9293155074119568e-01 6.9035720825195313e-01</leafValues></_>
        <_>
          <internalNodes>
            0 -1 8 5.8378092944622040e-05</internalNodes>
          <leafValues>
            -4.9220576882362366e-01 4.3284940719604492e-01</leafValues></_>
        <_>
          <internalNodes>
            0 -1 69 2.1298712817952037e-04</internalNodes>
          <leafValues>
            3.3200514316558838e-01 -6.4101976156234741e-01</leafValues></_>
        <_>
          <internalNodes>
            0 -1 17 1.1725160584319383e-04</internalNodes>
          <leafValues>
            2.5653472542762756e-01 -9.2124307155609131e-01</leafValues></_></weakClassifiers></_>
    <!-- stage 12 -->
    <_>
      <maxWeakCount>4</maxWeakCount>
      <stageThreshold>-9.9885606765747070e-01</stageThreshold>
      <weakClassifiers>
        <_>
          <internalNodes>
            0 -1 31 -3.0990652740001678e-03</internalNodes>
          <leafValues>
            6.4705884456634521e-01 -7.1314740180969238e-01</leafValues></_>
        <_>
          <internalNodes>
            0 -1 32 -1.0892192367464304e-03</internalNodes>
          <leafValues>
            4.8262521624565125e-01 -4.5387870073318481e-01</leafValues></_>
        <_>
          <internalNodes>
            0 -1 20 2.6843357831239700e-02</internalNodes>
          <leafValues>
            -4.2961785197257996e-01 6.2908661365509033e-01</leafValues></_>
        <_>
          <internalNodes>
            0 -1 54 -1.5135367400944233e-02</internalNodes>
          <leafValues>
            7.3659378290176392e-01 -3.3871603012084961e-01</leafValues></_></weakClassifiers></_>
    <!-- stage 13 -->
    <_>
      <maxWeakCount>5</maxWeakCount>
      <stageThreshold>-1.1557699441909790e+00</stageThreshold>
      <weakClassifiers>
        <_>
          <internalNodes>
            0 -1 7 -4.1836559772491455e-02</internalNodes>
          <leafValues>
            1. -6.7692309617996216e-01</leafValues></_>
        <_>
          <internalNodes>
            0 -1 73 1.6986974515020847e-03</internalNodes>
          <leafValues>
            9.6536412835121155e-02 -1.</leafValues></_>
        <_>
          <internalNodes>
            0 -1 24 3.1303767173085362e-05</internalNodes>
          <leafValues>
            -5.3295201063156128e-01 3.4394621849060059e-01</leafValues></_>
        <_>
          <internalNodes>
            0 -1 37 2.3044678382575512e-03</internalNodes>
          <leafValues>
            -2.9005113244056702e-01 6.6677188873291016e-01</leafValues></_>
        <_>
          <internalNodes>
            0 -1 5 -1.0982924140989780e-04</internalNodes>
          <leafValues>
            -9.4807928800582886e-01 2.4761992692947388e-01</leafValues></_></weakClassifiers></_>
    <!-- stage 14 -->
    <_>
      <maxWeakCount>5</maxWeakCount>
      <stageThreshold>-7.5184381008148193e-01</stageThreshold>
      <weakClassifiers>
        <_>
          <internalNodes>
            0 -1 30 1.2240560725331306e-02</internalNodes>
          <leafValues>
            -6.9649803638458252e-01 1.</leafValues></_>
        <_>
          <internalNodes>
            0 -1 29 -4.8396117053925991e-03</internalNodes>
          <leafValues>
            5.8553963899612427e-01 -4.2170935869216919e-01</leafValues></_>
        <_>
          <internalNodes>
            0 -1 79 8.9143031800631434e-05</internalNodes>
          <leafValues>
            -4.6516987681388855e-01 5.0048840045928955e-01</leafValues></_>
        <_>
          <internalNodes>
            0 -1 75 -2.7580539608607069e-05</internalNodes>
          <leafValues>
            4.1257610917091370e-01 -4.3758770823478699e-01</leafValues></_>
        <_>
          <internalNodes>
            0 -1 65 -3.5734698030864820e-05</internalNodes>
          <leafValues>
            4.2531055212020874e-01 -5.4670089483261108e-01</leafValues></_></weakClassifiers></_>
    <!-- stage 15 -->
    <_>
      <maxWeakCount>5</maxWeakCount>
      <stageThreshold>-6.5830731391906738e-01</stageThreshold>
      <weakClassifiers>
        <_>
          <internalNodes>
            0 -1 68 4.9825981259346008e-03</internalNodes>
          <leafValues>
            -6.8339771032333374e-01 1.</leafValues></_>
        <_>
          <internalNodes>
            0 -1 85 -2.8508028481155634e-04</internalNodes>
          <leafValues>
            -9.2148417234420776e-01 1.2516701221466064e-01</leafValues></_>
        <_>
          <internalNodes>
            0 -1 87 1.9139022333547473e-04</internalNodes>
          <leafValues>
            1.4230753481388092e-01 -1.</leafValues></_>
        <_>
          <internalNodes>
            0 -1 66 1.1936612281715497e-04</internalNodes>
          <leafValues>
            2.8712832927703857e-01 -6.3107168674468994e-01</leafValues></_>
        <_>
          <internalNodes>
            0 -1 36 5.7754211593419313e-04</internalNodes>
          <leafValues>
            -4.5894959568977356e-01 5.1713871955871582e-01</leafValues></_></weakClassifiers></_>
    <!-- stage 16 -->
    <_>
      <maxWeakCount>6</maxWeakCount>
      <stageThreshold>-1.1226477622985840e+00</stageThreshold>
      <weakClassifiers>
        <_>
          <internalNodes>
            0 -1 43 2.6510979514569044e-03</internalNodes>
          <leafValues>
            -7.0399999618530273e-01 4.4444444775581360e-01</leafValues></_>
        <_>
          <internalNodes>
            0 -1 51 1.1786373797804117e-03</internalNodes>
          <leafValues>
            -5.1852345466613770e-01 3.7937077879905701e-01</leafValues></_>
        <_>
          <internalNodes>
            0 -1 12 -1.3773282989859581e-02</internalNodes>
          <leafValues>
            6.0885560512542725e-01 -3.1656631827354431e-01</leafValues></_>
        <_>
          <internalNodes>
            0 -1 4 -1.0382995242252946e-04</internalNodes>
          <leafValues>
            -6.1392432451248169e-01 3.7097933888435364e-01</leafValues></_>
        <_>
          <internalNodes>
            0 -1 22 -4.8076770326588303e-05</internalNodes>
          <leafValues>
            4.1968849301338196e-01 -4.8230358958244324e-01</leafValues></_>
        <_>
          <internalNodes>
            0 -1 47 -9.0320991148473695e-06</internalNodes>
          <leafValues>
            5.4313129186630249e-01 -3.7012797594070435e-01</leafValues></_></weakClassifiers></_>
    <!-- stage 17 -->
    <_>
      <maxWeakCount>4</maxWeakCount>
      <stageThreshold>-7.7447521686553955e-01</stageThreshold>
      <weakClassifiers>
        <_>
          <internalNodes>
            0 -1 11 2.8363548219203949e-02</internalNodes>
          <leafValues>
            -6.8339771032333374e-01 1.</leafValues></_>
        <_>
          <internalNodes>
            0 -1 6 -2.6070309104397893e-04</internalNodes>
          <leafValues>
            -9.1465097665786743e-01 9.3793682754039764e-02</leafValues></_>
        <_>
          <internalNodes>
            0 -1 67 3.0049576889723539e-04</internalNodes>
          <leafValues>
            1.3008271157741547e-01 -1.</leafValues></_>
        <_>
          <internalNodes>
            0 -1 28 -7.5235683470964432e-03</internalNodes>
          <leafValues>
            7.0880681276321411e-01 -3.1495392322540283e-01</leafValues></_></weakClassifiers></_>
    <!-- stage 18 -->
    <_>
      <maxWeakCount>5</maxWeakCount>
      <stageThreshold>-1.0761308670043945e+00</stageThreshold>
      <weakClassifiers>
        <_>
          <internalNodes>
            0 -1 18 7.8922107815742493e-02</internalNodes>
          <leafValues>
            -6.9841271638870239e-01 5.0000000000000000e-01</leafValues></_>
        <_>
          <internalNodes>
            0 -1 46 5.2259094081819057e-04</internalNodes>
          <leafValues>
            -6.1211138963699341e-01 2.2705024480819702e-01</leafValues></_>
        <_>
          <internalNodes>
            0 -1 1 -4.4792555854655802e-05</internalNodes>
          <leafValues>
            -6.9168233871459961e-01 2.6135069131851196e-01</leafValues></_>
        <_>
          <internalNodes>
            0 -1 45 -6.3783687073737383e-04</internalNodes>
          <leafValues>
            5.9195673465728760e-01 -4.0301334857940674e-01</leafValues></_>
        <_>
          <internalNodes>
            0 -1 70 -3.7095021980348974e-05</internalNodes>
          <leafValues>
            5.4091364145278931e-01 -4.6310579776763916e-01</leafValues></_></weakClassifiers></_>
    <!-- stage 19 -->
    <_>
      <maxWeakCount>5</maxWeakCount>
      <stageThreshold>-1.0917452573776245e+00</stageThreshold>
      <weakClassifiers>
        <_>
          <internalNodes>
            0 -1 26 1.0119859129190445e-02</internalNodes>
          <leafValues>
            -7.2727274894714355e-01 3.0769231915473938e-01</leafValues></_>
        <_>
          <internalNodes>
            0 -1 9 3.2462761737406254e-04</internalNodes>
          <leafValues>
            1.1825510114431381e-01 -7.5391501188278198e-01</leafValues></_>
        <_>
          <internalNodes>
            0 -1 59 -1.9717765972018242e-03</internalNodes>
          <leafValues>
            5.7541686296463013e-01 -3.5700500011444092e-01</leafValues></_>
        <_>
          <internalNodes>
            0 -1 48 2.9737204313278198e-03</internalNodes>
          <leafValues>
            -3.4231171011924744e-01 5.9745514392852783e-01</leafValues></_>
        <_>
          <internalNodes>
            0 -1 0 4.8298691399395466e-04</internalNodes>
          <leafValues>
            2.1658910810947418e-01 -1.</leafValues></_></weakClassifiers></_></stages>
  <features>
    <_>
      <rects>
        <_>
          0 0 4 2 -1.</_>
        <_>
          0 1 4 1 2.</_></rects>
      <tilted>0</tilted></_>
    <_>
      <rects>
        <_>
          0 1 2 3 -1.</_>
        <_>
          0 2 2 1 3.</_></rects>
      <tilted>0</tilted></_>
    <_>
      <rects>
        <_>
          0 11 29 6 -1.</_>
        <_>
          0 14 29 3 2.</_></rects>
      <tilted>0</tilted></_>
    <_>
      <rects>
        <_>
          0 13 30 4 -1.</_>
        <_>
          10 13 10 4 3.</_></rects>
      <tilted>0</tilted></_>
    <_>
      <rects>
        <_>
          0 14 1 12 -1.</_>
        <_>
          0 18 1 4 3.</_></rects>
      <tilted>0</tilted></_>
    <_>
      <rects>
        <_>
          0 20 2 2 -1.</_>
        <_>
          0 20 1 1 2.</_>
        <_>
          1 21 1 1 2.</_></rects>
      <tilted>0</tilted></_>
    <_>
      <rects>
        <_>
          1 2 2 2 -1.</_>
        <_>
          1 3 2 1 2.</_></rects>
      <tilted>0</tilted></_>
    <_>
      <rects>
        <_>
          1 6 31 6 -1.</_>
        <_>
          1 8 31 2 3.</_></rects>
      <tilted>0</tilted></_>
    <_>
      <rects>
        <_>
          2 0 9 6 -1.</_>
        <_>
          2 2 9 2 3.</_></rects>
      <tilted>0</tilted></_>
    <_>
      <rects>
        <_>
          2 3 6 8 -1.</_>
        <_>
          2 3 3 4 2.</_>
        <_>
          5 7 3 4 2.</_></rects>
      <tilted>0</tilted></_>
    <_>
      <rects>
        <_>
          2 6 2 6 -1.</_>
        <_>
          3 6 1 6 2.</_></rects>
      <tilted>0</tilted></_>
    <_>
      <rects>
        <_>
          2 18 3 14 -1.</_>
        <_>
          2 25 3 7 2.</_></rects>
      <tilted>0</tilted></_>
    <_>
      <rects>
        <_>
          3 1 14 9 -1.</_>
        <_>
          3 4 14 3 3.</_></rects>
      <tilted>0</tilted></_>
    <_>
      <rects>
        <_>
          3 15 2 10 -1.</_>
        <_>
          3 15 1 5 2.</_>
        <_>
          4 20 1 5 2.</_></rects>
      <tilted>0</tilted></_>
    <_>
      <rects>
        <_>
          3 19 17 10 -1.</_>
        <_>
          3 24 17 5 2.</_></rects>
      <tilted>0</tilted></_>
    <_>
      <rects>
        <_>
          4 7 24 8 -1.</_>
        <_>
          4 11 24 4 2.</_></rects>
      <tilted>0</tilted></_>
    <_>
      <rects>
        <_>
          4 27 9 3 -1.</_>
        <_>
          4 28 9 1 3.</_></rects>
      <tilted>0</tilted></_>
    <_>
      <rects>
        <_>
          5 9 1 3 -1.</_>
        <_>
          5 10 1 1 3.</_></rects>
      <tilted>0</tilted></_>
    <_>
      <rects>
        <_>
          5 12 27 9 -1.</_>
        <_>
          14 12 9 9 3.</_></rects>
      <tilted>0</tilted></_>
    <_>
      <rects>
        <_>
          5 14 10 3 -1.</_>
        <_>
          10 14 5 3 2.</_></rects>
      <tilted>0</tilted></_>
    <_>
      <rects>
        <_>
          5 22 26 10 -1.</_>
        <_>
          5 27 26 5 2.</_></rects>
      <tilted>0</tilted></_>
    <_>
      <rects>
        <_>
          5 25 26 6 -1.</_>
        <_>
          5 27 26 2 3.</_></rects>
      <tilted>0</tilted></_>
    <_>
      <rects>
        <_>
          5 26 4 4 -1.</_>
        <_>
          5 26 2 2 2.</_>
        <_>
          7 28 2 2 2.</_></rects>
      <tilted>0</tilted></_>
    <_>
      <rects>
        <_>
          5 28 14 3 -1.</_>
        <_>
          5 29 14 1 3.</_></rects>
      <tilted>0</tilted></_>
    <_>
      <rects>
        <_>
          6 17 4 4 -1.</_>
        <_>
          6 17 2 2 2.</_>
        <_>
          8 19 2 2 2.</_></rects>
      <tilted>0</tilted></_>
    <_>
      <rects>
        <_>
          8 0 3 3 -1.</_>
        <_>
          8 1 3 1 3.</_></rects>
      <tilted>0</tilted></_>
    <_>
      <rects>
        <_>
          8 1 4 19 -1.</_>
        <_>
          10 1 2 19 2.</_></rects>
      <tilted>0</tilted></_>
    <_>
      <rects>
        <_>
          8 29 3 2 -1.</_>
        <_>
          9 29 1 2 3.</_></rects>
      <tilted>0</tilted></_>
    <_>
      <rects>
        <_>
          9 6 15 6 -1.</_>
        <_>
          9 8 15 2 3.</_></rects>
      <tilted>0</tilted></_>
    <_>
      <rects>
        <_>
          10 4 2 26 -1.</_>
        <_>
          11 4 1 26 2.</_></rects>
      <tilted>0</tilted></_>
    <_>
      <rects>
        <_>
          10 6 3 20 -1.</_>
        <_>
          11 6 1 20 3.</_></rects>
      <tilted>0</tilted></_>
    <_>
      <rects>
        <_>
          10 29 10 2 -1.</_>
        <_>
          10 30 10 1 2.</_></rects>
      <tilted>0</tilted></_>
    <_>
      <rects>
        <_>
          10 30 22 2 -1.</_>
        <_>
          10 31 22 1 2.</_></rects>
      <tilted>0</tilted></_>
    <_>
      <rects>
        <_>
          10 31 9 1 -1.</_>
        <_>
          13 31 3 1 3.</_></rects>
      <tilted>0</tilted></_>
    <_>
      <rects>
        <_>
          11 1 3 1 -1.</_>
        <_>
          12 1 1 1 3.</_></rects>
      <tilted>0</tilted></_>
    <_>
      <rects>
        <_>
          11 4 4 14 -1.</_>
        <_>
          11 4 2 7 2.</_>
        <_>
          13 11 2 7 2.</_></rects>
      <tilted>0</tilted></_>
    <_>
      <rects>
        <_>
          11 6 11 3 -1.</_>
        <_>
          11 7 11 1 3.</_></rects>
      <tilted>0</tilted></_>
    <_>
      <rects>
        <_>
          11 16 3 13 -1.</_>
        <_>
          12 16 1 13 3.</_></rects>
      <tilted>0</tilted></_>
    <_>
      <rects>
        <_>
          12 7 14 15 -1.</_>
        <_>
          12 12 14 5 3.</_></rects>
      <tilted>0</tilted></_>
    <_>
      <rects>
        <_>
          12 30 2 2 -1.</_>
        <_>
          13 30 1 2 2.</_></rects>
      <tilted>0</tilted></_>
    <_>
      <rects>
        <_>
          13 9 3 15 -1.</_>
        <_>
          14 9 1 15 3.</_></rects>
      <tilted>0</tilted></_>
    <_>
      <rects>
        <_>
          13 18 6 3 -1.</_>
        <_>
          13 19 6 1 3.</_></rects>
      <tilted>0</tilted></_>
    <_>
      <rects>
        <_>
          13 20 6 3 -1.</_>
        <_>
          13 21 6 1 3.</_></rects>
      <tilted>0</tilted></_>
    <_>
      <rects>
        <_>
          13 21 3 3 -1.</_>
        <_>
          14 21 1 3 3.</_></rects>
      <tilted>0</tilted></_>
    <_>
      <rects>
        <_>
          13 23 18 8 -1.</_>
        <_>
          13 23 9 4 2.</_>
        <_>
          22 27 9 4 2.</_></rects>
      <tilted>0</tilted></_>
    <_>
      <rects>
        <_>
          13 25 15 2 -1.</_>
        <_>
          13 26 15 1 2.</_></rects>
      <tilted>0</tilted></_>
    <_>
      <rects>
        <_>
          14 4 9 7 -1.</_>
        <_>
          17 4 3 7 3.</_></rects>
      <tilted>0</tilted></_>
    <_>
      <rects>
        <_>
          14 5 2 2 -1.</_>
        <_>
          14 5 1 1 2.</_>
        <_>
          15 6 1 1 2.</_></rects>
      <tilted>0</tilted></_>
    <_>
      <rects>
        <_>
          14 18 6 4 -1.</_>
        <_>
          16 18 2 4 3.</_></rects>
      <tilted>0</tilted></_>
    <_>
      <rects>
        <_>
          15 12 3 7 -1.</_>
        <_>
          16 12 1 7 3.</_></rects>
      <tilted>0</tilted></_>
    <_>
      <rects>
        <_>
          15 16 6 7 -1.</_>
        <_>
          17 16 2 7 3.</_></rects>
      <tilted>0</tilted></_>
    <_>
      <rects>
        <_>
          15 21 3 8 -1.</_>
        <_>
          16 21 1 8 3.</_></rects>
      <tilted>0</tilted></_>
    <_>
      <rects>
        <_>
          15 22 15 10 -1.</_>
        <_>
          15 27 15 5 2.</_></rects>
      <tilted>0</tilted></_>
    <_>
      <rects>
        <_>
          15 25 9 2 -1.</_>
        <_>
          18 25 3 2 3.</_></rects>
      <tilted>0</tilted></_>
    <_>
      <rects>
        <_>
          15 25 13 6 -1.</_>
        <_>
          15 28 13 3 2.</_></rects>
      <tilted>0</tilted></_>
    <_>
      <rects>
        <_>
          16 1 3 14 -1.</_>
        <_>
          17 1 1 14 3.</_></rects>
      <tilted>0</tilted></_>
    <_>
      <rects>
        <_>
          16 18 3 9 -1.</_>
        <_>
          17 18 1 9 3.</_></rects>
      <tilted>0</tilted></_>
    <_>
      <rects>
        <_>
          17 0 6 2 -1.</_>
        <_>
          17 0 3 1 2.</_>
        <_>
          20 1 3 1 2.</_></rects>
      <tilted>0</tilted></_>
    <_>
      <rects>
        <_>
          17 1 1 26 -1.</_>
        <_>
          17 14 1 13 2.</_></rects>
      <tilted>0</tilted></_>
    <_>
      <rects>
        <_>
          18 5 3 11 -1.</_>
        <_>
          19 5 1 11 3.</_></rects>
      <tilted>0</tilted></_>
    <_>
      <rects>
        <_>
          18 12 3 4 -1.</_>
        <_>
          19 12 1 4 3.</_></rects>
      <tilted>0</tilted></_>
    <_>
      <rects>
        <_>
          18 13 3 12 -1.</_>
        <_>
          19 13 1 12 3.</_></rects>
      <tilted>0</tilted></_>
    <_>
      <rects>
        <_>
          18 13 14 3 -1.</_>
        <_>
          25 13 7 3 2.</_></rects>
      <tilted>0</tilted></_>
    <_>
      <rects>
        <_>
          19 0 10 18 -1.</_>
        <_>
          19 6 10 6 3.</_></rects>
      <tilted>0</tilted></_>
    <_>
      <rects>
        <_>
          19 9 2 2 -1.</_>
        <_>
          20 9 1 2 2.</_></rects>
      <tilted>0</tilted></_>
    <_>
      <rects>
        <_>
          19 24 12 2 -1.</_>
        <_>
          19 24 6 1 2.</_>
        <_>
          25 25 6 1 2.</_></rects>
      <tilted>0</tilted></_>
    <_>
      <rects>
        <_>
          20 3 12 2 -1.</_>
        <_>
          20 3 6 1 2.</_>
        <_>
          26 4 6 1 2.</_></rects>
      <tilted>0</tilted></_>
    <_>
      <rects>
        <_>
          20 23 2 4 -1.</_>
        <_>
          20 23 1 2 2.</_>
        <_>
          21 25 1 2 2.</_></rects>
      <tilted>0</tilted></_>
    <_>
      <rects>
        <_>
          20 28 8 2 -1.</_>
        <_>
          20 29 8 1 2.</_></rects>
      <tilted>0</tilted></_>
    <_>
      <rects>
        <_>
          21 0 9 1 -1.</_>
        <_>
          24 0 3 1 3.</_></rects>
      <tilted>0</tilted></_>
    <_>
      <rects>
        <_>
          22 2 4 9 -1.</_>
        <_>
          24 2 2 9 2.</_></rects>
      <tilted>0</tilted></_>
    <_>
      <rects>
        <_>
          22 5 10 22 -1.</_>
        <_>
          22 16 10 11 2.</_></rects>
      <tilted>0</tilted></_>
    <_>
      <rects>
        <_>
          22 17 2 12 -1.</_>
        <_>
          22 17 1 6 2.</_>
        <_>
          23 23 1 6 2.</_></rects>
      <tilted>0</tilted></_>
    <_>
      <rects>
        <_>
          22 29 9 1 -1.</_>
        <_>
          25 29 3 1 3.</_></rects>
      <tilted>0</tilted></_>
    <_>
      <rects>
        <_>
          23 11 2 6 -1.</_>
        <_>
          24 11 1 6 2.</_></rects>
      <tilted>0</tilted></_>
    <_>
      <rects>
        <_>
          24 7 2 6 -1.</_>
        <_>
          24 7 1 3 2.</_>
        <_>
          25 10 1 3 2.</_></rects>
      <tilted>0</tilted></_>
    <_>
      <rects>
        <_>
          24 7 6 2 -1.</_>
        <_>
          24 7 3 1 2.</_>
        <_>
          27 8 3 1 2.</_></rects>
      <tilted>0</tilted></_>
    <_>
      <rects>
        <_>
          25 15 6 7 -1.</_>
        <_>
          28 15 3 7 2.</_></rects>
      <tilted>0</tilted></_>
    <_>
      <rects>
        <_>
          25 29 6 2 -1.</_>
        <_>
          25 29 3 1 2.</_>
        <_>
          28 30 3 1 2.</_></rects>
      <tilted>0</tilted></_>
    <_>
      <rects>
        <_>
          26 2 6 4 -1.</_>
        <_>
          26 4 6 2 2.</_></rects>
      <tilted>0</tilted></_>
    <_>
      <rects>
        <_>
          27 1 1 6 -1.</_>
        <_>
          27 3 1 2 3.</_></rects>
      <tilted>0</tilted></_>
    <_>
      <rects>
        <_>
          27 1 4 1 -1.</_>
        <_>
          29 1 2 1 2.</_></rects>
      <tilted>0</tilted></_>
    <_>
      <rects>
        <_>
          28 3 4 2 -1.</_>
        <_>
          30 3 2 2 2.</_></rects>
      <tilted>0</tilted></_>
    <_>
      <rects>
        <_>
          29 8 1 9 -1.</_>
        <_>
          29 11 1 3 3.</_></rects>
      <tilted>0</tilted></_>
    <_>
      <rects>
        <_>
          29 10 2 2 -1.</_>
        <_>
          29 10 1 1 2.</_>
        <_>
          30 11 1 1 2.</_></rects>
      <tilted>0</tilted></_>
    <_>
      <rects>
        <_>
          29 27 3 3 -1.</_>
        <_>
          30 27 1 3 3.</_></rects>
      <tilted>0</tilted></_>
    <_>
      <rects>
        <_>
          29 27 3 2 -1.</_>
        <_>
          29 28 3 1 2.</_></rects>
      <tilted>0</tilted></_>
    <_>
      <rects>
        <_>
          30 15 2 1 -1.</_>
        <_>
          31 15 1 1 2.</_></rects>
      <tilted>0</tilted></_>
    <_>
      <rects>
        <_>
          30 21 1 2 -1.</_>
        <_>
          30 22 1 1 2.</_></rects>
      <tilted>0</tilted></_>
    <_>
      <rects>
        <_>
          31 7 1 3 -1.</_>
        <_>
          31 8 1 1 3.</_></rects>
      <tilted>0</tilted></_></features></cascade>
</opencv_storage>
