<?xml version="1.0"?>
<opencv_storage>
<cascade>
  <stageType>BOOST</stageType>
  <featureType>HAAR</featureType>
  <height>32</height>
  <width>32</width>
  <stageParams>
    <boostType>GAB</boostType>
    <minHitRate>9.9500000476837158e-01</minHitRate>
    <maxFalseAlarm>5.0000000000000000e-01</maxFalseAlarm>
    <weightTrimRate>9.4999998807907104e-01</weightTrimRate>
    <maxDepth>1</maxDepth>
    <maxWeakCount>100</maxWeakCount></stageParams>
  <featureParams>
    <maxCatCount>0</maxCatCount>
    <featSize>1</featSize>
    <mode>BASIC</mode></featureParams>
  <stageNum>13</stageNum>
  <stages>
    <!-- stage 0 -->
    <_>
      <maxWeakCount>5</maxWeakCount>
      <stageThreshold>-1.5242255926132202e+00</stageThreshold>
      <weakClassifiers>
        <_>
          <internalNodes>
            0 -1 28 -5.8117747306823730e-02</internalNodes>
          <leafValues>
            9.2857140302658081e-01 -8.5728847980499268e-01</leafValues></_>
        <_>
          <internalNodes>
            0 -1 24 -6.4315453171730042e-02</internalNodes>
          <leafValues>
            5.6618982553482056e-01 -6.6538542509078979e-01</leafValues></_>
        <_>
          <internalNodes>
            0 -1 0 4.2377840727567673e-03</internalNodes>
          <leafValues>
            -6.6439044475555420e-01 5.5225104093551636e-01</leafValues></_>
        <_>
          <internalNodes>
            0 -1 37 2.4136522551998496e-04</internalNodes>
          <leafValues>
            -8.0465191602706909e-01 3.8427773118019104e-01</leafValues></_>
        <_>
          <internalNodes>
            0 -1 53 -3.4049170790240169e-04</internalNodes>
          <leafValues>
            -9.8653608560562134e-01 2.7856096625328064e-01</leafValues></_></weakClassifiers></_>
    <!-- stage 1 -->
    <_>
      <maxWeakCount>4</maxWeakCount>
      <stageThreshold>-1.4344750642776489e+00</stageThreshold>
      <weakClassifiers>
        <_>
          <internalNodes>
            0 -1 33 -4.5402549207210541e-02</internalNodes>
          <leafValues>
            8.7096774578094482e-01 -8.6094069480895996e-01</leafValues></_>
        <_>
          <internalNodes>
            0 -1 5 2.4327528662979603e-03</internalNodes>
          <leafValues>
            -8.2502806186676025e-01 1.7278425395488739e-01</leafValues></_>
        <_>
          <internalNodes>
            0 -1 54 -1.2875918764621019e-03</internalNodes>
          <leafValues>
            -9.5247220993041992e-01 2.3134468495845795e-01</leafValues></_>
        <_>
          <internalNodes>
            0 -1 26 -6.6846166737377644e-04</internalNodes>
          <leafValues>
            -9.4591802358627319e-01 2.0615354180335999e-01</leafValues></_></weakClassifiers></_>
    <!-- stage 2 -->
    <_>
      <maxWeakCount>5</maxWeakCount>
      <stageThreshold>-1.7503141164779663e+00</stageThreshold>
      <weakClassifiers>
        <_>
          <internalNodes>
            0 -1 31 -7.1770437061786652e-02</internalNodes>
          <leafValues>
            4.4186046719551086e-01 -8.6335402727127075e-01</leafValues></_>
        <_>
          <internalNodes>
            0 -1 32 -2.1796189248561859e-02</internalNodes>
          <leafValues>
            6.5572440624237061e-01 -5.6260526180267334e-01</leafValues></_>
        <_>
          <internalNodes>
            0 -1 58 3.7866036291234195e-04</internalNodes>
          <leafValues>
            -8.8959437608718872e-01 3.1856209039688110e-01</leafValues></_>
        <_>
          <internalNodes>
            0 -1 49 -2.4464265443384647e-03</internalNodes>
          <leafValues>
            -9.5481187105178833e-01 2.5830724835395813e-01</leafValues></_>
        <_>
          <internalNodes>
            0 -1 14 1.0754805407486856e-04</internalNodes>
          <leafValues>
            -7.7574014663696289e-01 3.0693233013153076e-01</leafValues></_></weakClassifiers></_>
    <!-- stage 3 -->
    <_>
      <maxWeakCount>5</maxWeakCount>
      <stageThreshold>-1.3751919269561768e+00</stageThreshold>
      <weakClassifiers>
        <_>
          <internalNodes>
            0 -1 30 -1.2740291655063629e-01</internalNodes>
          <leafValues>
            1. -8.4802430868148804e-01</leafValues></_>
        <_>
          <internalNodes>
            0 -1 62 -1.8826837185770273e-04</internalNodes>
          <leafValues>
            -1. -7.6838113367557526e-02</leafValues></_>
        <_>
          <internalNodes>
            0 -1 11 -1.4062745322007686e-04</internalNodes>
          <leafValues>
            -8.6495101451873779e-01 2.3252396285533905e-01</leafValues></_>
        <_>
          <internalNodes>
            0 -1 52 -1.9004043133463711e-04</internalNodes>
          <leafValues>
            -9.3477338552474976e-01 2.3498070240020752e-01</leafValues></_>
        <_>
          <internalNodes>
            0 -1 8 2.7454949304228649e-05</internalNodes>
          <leafValues>
            -8.2448929548263550e-01 2.5191992521286011e-01</leafValues></_></weakClassifiers></_>
    <!-- stage 4 -->
    <_>
      <maxWeakCount>6</maxWeakCount>
      <stageThreshold>-1.8740971088409424e+00</stageThreshold>
      <weakClassifiers>
        <_>
          <internalNodes>
            0 -1 43 -1.8954597413539886e-02</internalNodes>
          <leafValues>
            4.0000000596046448e-01 -8.5758513212203979e-01</leafValues></_>
        <_>
          <internalNodes>
            0 -1 2 3.1316405511461198e-05</internalNodes>
          <leafValues>
            -8.8357532024383545e-01 -1.1470778845250607e-02</leafValues></_>
        <_>
          <internalNodes>
            0 -1 56 5.7588957133702934e-05</internalNodes>
          <leafValues>
            -7.7506542205810547e-01 2.2922143340110779e-01</leafValues></_>
        <_>
          <internalNodes>
            0 -1 60 -6.6659908043220639e-05</internalNodes>
          <leafValues>
            3.3573940396308899e-01 -6.6598933935165405e-01</leafValues></_>
        <_>
          <internalNodes>
            0 -1 64 -1.4502790872938931e-04</internalNodes>
          <leafValues>
            -9.6441775560379028e-01 2.4873721599578857e-01</leafValues></_>
        <_>
          <internalNodes>
            0 -1 3 -8.2341057714074850e-04</internalNodes>
          <leafValues>
            -1. 1.8727631866931915e-01</leafValues></_></weakClassifiers></_>
    <!-- stage 5 -->
    <_>
      <maxWeakCount>4</maxWeakCount>
      <stageThreshold>-1.5499773025512695e+00</stageThreshold>
      <weakClassifiers>
        <_>
          <internalNodes>
            0 -1 47 -3.3525303006172180e-02</internalNodes>
          <leafValues>
            3.3333334326744080e-01 -8.6099582910537720e-01</leafValues></_>
        <_>
          <internalNodes>
            0 -1 51 -1.4401588123291731e-04</internalNodes>
          <leafValues>
            4.1083209216594696e-02 -7.8115063905715942e-01</leafValues></_>
        <_>
          <internalNodes>
            0 -1 6 -6.9576676469296217e-04</internalNodes>
          <leafValues>
            -9.3093407154083252e-01 1.9091349840164185e-01</leafValues></_>
        <_>
          <internalNodes>
            0 -1 19 -4.4735631672665477e-04</internalNodes>
          <leafValues>
            -9.6771210432052612e-01 2.0086936652660370e-01</leafValues></_></weakClassifiers></_>
    <!-- stage 6 -->
    <_>
      <maxWeakCount>5</maxWeakCount>
      <stageThreshold>-1.5611082315444946e+00</stageThreshold>
      <weakClassifiers>
        <_>
          <internalNodes>
            0 -1 45 -4.8970960080623627e-02</internalNodes>
          <leafValues>
            1. -8.4242421388626099e-01</leafValues></_>
        <_>
          <internalNodes>
            0 -1 35 4.6064462512731552e-02</internalNodes>
          <leafValues>
            -6.3659518957138062e-01 2.9506707191467285e-01</leafValues></_>
        <_>
          <internalNodes>
            0 -1 9 3.1114737794268876e-05</internalNodes>
          <leafValues>
            -7.7101153135299683e-01 3.0029687285423279e-01</leafValues></_>
        <_>
          <internalNodes>
            0 -1 61 -2.3366659297607839e-04</internalNodes>
          <leafValues>
            3.4771174192428589e-01 -6.4792388677597046e-01</leafValues></_>
        <_>
          <internalNodes>
            0 -1 59 -2.6319436728954315e-03</internalNodes>
          <leafValues>
            4.2775592207908630e-01 -5.9045130014419556e-01</leafValues></_></weakClassifiers></_>
    <!-- stage 7 -->
    <_>
      <maxWeakCount>5</maxWeakCount>
      <stageThreshold>-1.6081413030624390e+00</stageThreshold>
      <weakClassifiers>
        <_>
          <internalNodes>
            0 -1 45 -4.7735460102558136e-02</internalNodes>
          <leafValues>
            1. -8.4242421388626099e-01</leafValues></_>
        <_>
          <internalNodes>
            0 -1 20 1.1724762618541718e-02</internalNodes>
          <leafValues>
            -6.2968158721923828e-01 3.0574902892112732e-01</leafValues></_>
        <_>
          <internalNodes>
            0 -1 25 -8.2025100709870458e-05</internalNodes>
          <leafValues>
            -9.3901270627975464e-01 2.2336480021476746e-01</leafValues></_>
        <_>
          <internalNodes>
            0 -1 46 2.2531512659043074e-03</internalNodes>
          <leafValues>
            -4.1902327537536621e-01 5.5094617605209351e-01</leafValues></_>
        <_>
          <internalNodes>
            0 -1 57 -1.8318503862246871e-04</internalNodes>
          <leafValues>
            -9.1941273212432861e-01 2.8656992316246033e-01</leafValues></_></weakClassifiers></_>
    <!-- stage 8 -->
    <_>
      <maxWeakCount>5</maxWeakCount>
      <stageThreshold>-1.5896663665771484e+00</stageThreshold>
      <weakClassifiers>
        <_>
          <internalNodes>
            0 -1 38 5.3287945687770844e-02</internalNodes>
          <leafValues>
            -8.3870965242385864e-01 1.</leafValues></_>
        <_>
          <internalNodes>
            0 -1 42 1.3326003216207027e-02</internalNodes>
          <leafValues>
            -5.8395582437515259e-01 3.7634432315826416e-01</leafValues></_>
        <_>
          <internalNodes>
            0 -1 48 2.2694314247928560e-04</internalNodes>
          <leafValues>
            -6.9465672969818115e-01 3.0002447962760925e-01</leafValues></_>
        <_>
          <internalNodes>
            0 -1 1 -2.8696164488792419e-02</internalNodes>
          <leafValues>
            3.3826166391372681e-01 -6.3357722759246826e-01</leafValues></_>
        <_>
          <internalNodes>
            0 -1 4 3.2997977541526780e-05</internalNodes>
          <leafValues>
            -7.9374831914901733e-01 2.7132156491279602e-01</leafValues></_></weakClassifiers></_>
    <!-- stage 9 -->
    <_>
      <maxWeakCount>7</maxWeakCount>
      <stageThreshold>-1.7312046289443970e+00</stageThreshold>
      <weakClassifiers>
        <_>
          <internalNodes>
            0 -1 44 1.8735352903604507e-02</internalNodes>
          <leafValues>
            -8.4349590539932251e-01 6.0000002384185791e-01</leafValues></_>
        <_>
          <internalNodes>
            0 -1 36 2.4111397564411163e-02</internalNodes>
          <leafValues>
            -5.6645560264587402e-01 2.8741604089736938e-01</leafValues></_>
        <_>
          <internalNodes>
            0 -1 63 -7.9611425462644547e-05</internalNodes>
          <leafValues>
            -1. 1.5613037347793579e-01</leafValues></_>
        <_>
          <internalNodes>
            0 -1 21 3.5627570468932390e-04</internalNodes>
          <leafValues>
            -5.1029586791992188e-01 3.2561281323432922e-01</leafValues></_>
        <_>
          <internalNodes>
            0 -1 27 2.4063297314569354e-04</internalNodes>
          <leafValues>
            2.6153144240379333e-01 -9.0140223503112793e-01</leafValues></_>
        <_>
          <internalNodes>
            0 -1 50 -3.2898555218707770e-05</internalNodes>
          <leafValues>
            3.1963482499122620e-01 -5.6250965595245361e-01</leafValues></_>
        <_>
          <internalNodes>
            0 -1 16 3.7518753670156002e-03</internalNodes>
          <leafValues>
            -6.1743777990341187e-01 3.3389061689376831e-01</leafValues></_></weakClassifiers></_>
    <!-- stage 10 -->
    <_>
      <maxWeakCount>4</maxWeakCount>
      <stageThreshold>-1.2392483949661255e+00</stageThreshold>
      <weakClassifiers>
        <_>
          <internalNodes>
            0 -1 40 7.5157068669795990e-02</internalNodes>
          <leafValues>
            -8.3132529258728027e-01 1.</leafValues></_>
        <_>
          <internalNodes>
            0 -1 41 8.9164841920137405e-03</internalNodes>
          <leafValues>
            -5.7615524530410767e-01 3.5474348068237305e-01</leafValues></_>
        <_>
          <internalNodes>
            0 -1 13 4.3817460536956787e-03</internalNodes>
          <leafValues>
            2.0956267416477203e-01 -9.4097512960433960e-01</leafValues></_>
        <_>
          <internalNodes>
            0 -1 10 -6.3572333601769060e-05</internalNodes>
          <leafValues>
            -8.0810189247131348e-01 1.7830856144428253e-01</leafValues></_></weakClassifiers></_>
    <!-- stage 11 -->
    <_>
      <maxWeakCount>5</maxWeakCount>
      <stageThreshold>-1.9837492704391479e+00</stageThreshold>
      <weakClassifiers>
        <_>
          <internalNodes>
            0 -1 34 8.3423778414726257e-02</internalNodes>
          <leafValues>
            -8.3299797773361206e-01 8.6666667461395264e-01</leafValues></_>
        <_>
          <internalNodes>
            0 -1 55 -2.2458503954112530e-03</internalNodes>
          <leafValues>
            -9.2571425437927246e-01 -8.8039383292198181e-02</leafValues></_>
        <_>
          <internalNodes>
            0 -1 15 3.1126481189858168e-05</internalNodes>
          <leafValues>
            -6.6172719001770020e-01 2.5107145309448242e-01</leafValues></_>
        <_>
          <internalNodes>
            0 -1 7 7.9621025361120701e-04</internalNodes>
          <leafValues>
            2.3887658119201660e-01 -8.5001140832901001e-01</leafValues></_>
        <_>
          <internalNodes>
            0 -1 18 -4.1125388815999031e-04</internalNodes>
          <leafValues>
            -7.7385449409484863e-01 1.9781364500522614e-01</leafValues></_></weakClassifiers></_>
    <!-- stage 12 -->
    <_>
      <maxWeakCount>6</maxWeakCount>
      <stageThreshold>-1.5964367389678955e+00</stageThreshold>
      <weakClassifiers>
        <_>
          <internalNodes>
            0 -1 23 5.8307040482759476e-02</internalNodes>
          <leafValues>
            -8.2948845624923706e-01 1.</leafValues></_>
        <_>
          <internalNodes>
            0 -1 12 2.5229679886251688e-04</internalNodes>
          <leafValues>
            -8.5514312982559204e-01 -3.6663118749856949e-02</leafValues></_>
        <_>
          <internalNodes>
            0 -1 29 -3.1037743610795587e-05</internalNodes>
          <leafValues>
            2.9203522205352783e-01 -5.4575133323669434e-01</leafValues></_>
        <_>
          <internalNodes>
            0 -1 17 2.4342101824004203e-04</internalNodes>
          <leafValues>
            -6.4551711082458496e-01 2.8074499964714050e-01</leafValues></_>
        <_>
          <internalNodes>
            0 -1 39 6.6345406230539083e-04</internalNodes>
          <leafValues>
            2.2357663512229919e-01 -8.6866688728332520e-01</leafValues></_>
        <_>
          <internalNodes>
            0 -1 22 8.6274201748892665e-05</internalNodes>
          <leafValues>
            -6.8885546922683716e-01 2.8680515289306641e-01</leafValues></_></weakClassifiers></_></stages>
  <features>
    <_>
      <rects>
        <_>
          0 0 8 5 -1.</_>
        <_>
          4 0 4 5 2.</_></rects>
      <tilted>0</tilted></_>
    <_>
      <rects>
        <_>
          0 0 22 22 -1.</_>
        <_>
          0 0 11 11 2.</_>
        <_>
          11 11 11 11 2.</_></rects>
      <tilted>0</tilted></_>
    <_>
      <rects>
        <_>
          0 1 2 1 -1.</_>
        <_>
          1 1 1 1 2.</_></rects>
      <tilted>0</tilted></_>
    <_>
      <rects>
        <_>
          0 1 3 9 -1.</_>
        <_>
          0 4 3 3 3.</_></rects>
      <tilted>0</tilted></_>
    <_>
      <rects>
        <_>
          0 3 9 2 -1.</_>
        <_>
          3 3 3 2 3.</_></rects>
      <tilted>0</tilted></_>
    <_>
      <rects>
        <_>
          0 4 2 25 -1.</_>
        <_>
          1 4 1 25 2.</_></rects>
      <tilted>0</tilted></_>
    <_>
      <rects>
        <_>
          0 5 3 9 -1.</_>
        <_>
          0 8 3 3 3.</_></rects>
      <tilted>0</tilted></_>
    <_>
      <rects>
        <_>
          0 5 12 4 -1.</_>
        <_>
          0 5 6 2 2.</_>
        <_>
          6 7 6 2 2.</_></rects>
      <tilted>0</tilted></_>
    <_>
      <rects>
        <_>
          0 12 9 2 -1.</_>
        <_>
          3 12 3 2 3.</_></rects>
      <tilted>0</tilted></_>
    <_>
      <rects>
        <_>
          0 23 2 1 -1.</_>
        <_>
          1 23 1 1 2.</_></rects>
      <tilted>0</tilted></_>
    <_>
      <rects>
        <_>
          0 28 3 3 -1.</_>
        <_>
          1 28 1 3 3.</_></rects>
      <tilted>0</tilted></_>
    <_>
      <rects>
        <_>
          0 28 9 4 -1.</_>
        <_>
          3 28 3 4 3.</_></rects>
      <tilted>0</tilted></_>
    <_>
      <rects>
        <_>
          0 30 12 2 -1.</_>
        <_>
          4 30 4 2 3.</_></rects>
      <tilted>0</tilted></_>
    <_>
      <rects>
        <_>
          1 2 6 11 -1.</_>
        <_>
          3 2 2 11 3.</_></rects>
      <tilted>0</tilted></_>
    <_>
      <rects>
        <_>
          1 29 21 1 -1.</_>
        <_>
          8 29 7 1 3.</_></rects>
      <tilted>0</tilted></_>
    <_>
      <rects>
        <_>
          2 10 2 1 -1.</_>
        <_>
          3 10 1 1 2.</_></rects>
      <tilted>0</tilted></_>
    <_>
      <rects>
        <_>
          2 13 18 2 -1.</_>
        <_>
          8 13 6 2 3.</_></rects>
      <tilted>0</tilted></_>
    <_>
      <rects>
        <_>
          3 6 12 3 -1.</_>
        <_>
          7 6 4 3 3.</_></rects>
      <tilted>0</tilted></_>
    <_>
      <rects>
        <_>
          4 2 2 16 -1.</_>
        <_>
          4 2 1 8 2.</_>
        <_>
          5 10 1 8 2.</_></rects>
      <tilted>0</tilted></_>
    <_>
      <rects>
        <_>
          4 30 9 1 -1.</_>
        <_>
          7 30 3 1 3.</_></rects>
      <tilted>0</tilted></_>
    <_>
      <rects>
        <_>
          6 14 12 3 -1.</_>
        <_>
          10 14 4 3 3.</_></rects>
      <tilted>0</tilted></_>
    <_>
      <rects>
        <_>
          7 0 5 2 -1.</_>
        <_>
          7 1 5 1 2.</_></rects>
      <tilted>0</tilted></_>
    <_>
      <rects>
        <_>
          7 5 1 12 -1.</_>
        <_>
          7 9 1 4 3.</_></rects>
      <tilted>0</tilted></_>
    <_>
      <rects>
        <_>
          7 7 10 12 -1.</_>
        <_>
          7 7 5 6 2.</_>
        <_>
          12 13 5 6 2.</_></rects>
      <tilted>0</tilted></_>
    <_>
      <rects>
        <_>
          7 13 21 10 -1.</_>
        <_>
          14 13 7 10 3.</_></rects>
      <tilted>0</tilted></_>
    <_>
      <rects>
        <_>
          9 30 2 1 -1.</_>
        <_>
          10 30 1 1 2.</_></rects>
      <tilted>0</tilted></_>
    <_>
      <rects>
        <_>
          9 31 21 1 -1.</_>
        <_>
          16 31 7 1 3.</_></rects>
      <tilted>0</tilted></_>
    <_>
      <rects>
        <_>
          10 1 3 3 -1.</_>
        <_>
          10 2 3 1 3.</_></rects>
      <tilted>0</tilted></_>
    <_>
      <rects>
        <_>
          10 8 14 10 -1.</_>
        <_>
          10 8 7 5 2.</_>
        <_>
          17 13 7 5 2.</_></rects>
      <tilted>0</tilted></_>
    <_>
      <rects>
        <_>
          10 9 3 8 -1.</_>
        <_>
          11 9 1 8 3.</_></rects>
      <tilted>0</tilted></_>
    <_>
      <rects>
        <_>
          10 10 12 12 -1.</_>
        <_>
          10 14 12 4 3.</_></rects>
      <tilted>0</tilted></_>
    <_>
      <rects>
        <_>
          10 13 21 4 -1.</_>
        <_>
          17 13 7 4 3.</_></rects>
      <tilted>0</tilted></_>
    <_>
      <rects>
        <_>
          10 14 12 3 -1.</_>
        <_>
          14 14 4 3 3.</_></rects>
      <tilted>0</tilted></_>
    <_>
      <rects>
        <_>
          10 14 21 2 -1.</_>
        <_>
          17 14 7 2 3.</_></rects>
      <tilted>0</tilted></_>
    <_>
      <rects>
        <_>
          11 0 12 16 -1.</_>
        <_>
          11 0 6 8 2.</_>
        <_>
          17 8 6 8 2.</_></rects>
      <tilted>0</tilted></_>
    <_>
      <rects>
        <_>
          11 0 18 18 -1.</_>
        <_>
          11 0 9 9 2.</_>
        <_>
          20 9 9 9 2.</_></rects>
      <tilted>0</tilted></_>
    <_>
      <rects>
        <_>
          11 8 12 16 -1.</_>
        <_>
          15 8 4 16 3.</_></rects>
      <tilted>0</tilted></_>
    <_>
      <rects>
        <_>
          12 5 18 1 -1.</_>
        <_>
          18 5 6 1 3.</_></rects>
      <tilted>0</tilted></_>
    <_>
      <rects>
        <_>
          12 9 10 5 -1.</_>
        <_>
          17 9 5 5 2.</_></rects>
      <tilted>0</tilted></_>
    <_>
      <rects>
        <_>
          12 25 6 3 -1.</_>
        <_>
          14 25 2 3 3.</_></rects>
      <tilted>0</tilted></_>
    <_>
      <rects>
        <_>
          13 7 5 14 -1.</_>
        <_>
          13 14 5 7 2.</_></rects>
      <tilted>0</tilted></_>
    <_>
      <rects>
        <_>
          13 15 4 9 -1.</_>
        <_>
          13 18 4 3 3.</_></rects>
      <tilted>0</tilted></_>
    <_>
      <rects>
        <_>
          14 6 3 12 -1.</_>
        <_>
          14 10 3 4 3.</_></rects>
      <tilted>0</tilted></_>
    <_>
      <rects>
        <_>
          14 10 6 8 -1.</_>
        <_>
          14 10 3 4 2.</_>
        <_>
          17 14 3 4 2.</_></rects>
      <tilted>0</tilted></_>
    <_>
      <rects>
        <_>
          14 11 9 2 -1.</_>
        <_>
          17 11 3 2 3.</_></rects>
      <tilted>0</tilted></_>
    <_>
      <rects>
        <_>
          14 14 15 2 -1.</_>
        <_>
          19 14 5 2 3.</_></rects>
      <tilted>0</tilted></_>
    <_>
      <rects>
        <_>
          16 7 1 12 -1.</_>
        <_>
          16 11 1 4 3.</_></rects>
      <tilted>0</tilted></_>
    <_>
      <rects>
        <_>
          17 13 12 8 -1.</_>
        <_>
          17 13 6 4 2.</_>
        <_>
          23 17 6 4 2.</_></rects>
      <tilted>0</tilted></_>
    <_>
      <rects>
        <_>
          17 30 15 1 -1.</_>
        <_>
          22 30 5 1 3.</_></rects>
      <tilted>0</tilted></_>
    <_>
      <rects>
        <_>
          18 20 14 12 -1.</_>
        <_>
          18 24 14 4 3.</_></rects>
      <tilted>0</tilted></_>
    <_>
      <rects>
        <_>
          18 23 1 2 -1.</_>
        <_>
          18 24 1 1 2.</_></rects>
      <tilted>0</tilted></_>
    <_>
      <rects>
        <_>
          18 23 1 4 -1.</_>
        <_>
          18 25 1 2 2.</_></rects>
      <tilted>0</tilted></_>
    <_>
      <rects>
        <_>
          23 0 4 3 -1.</_>
        <_>
          23 1 4 1 3.</_></rects>
      <tilted>0</tilted></_>
    <_>
      <rects>
        <_>
          23 0 8 9 -1.</_>
        <_>
          23 3 8 3 3.</_></rects>
      <tilted>0</tilted></_>
    <_>
      <rects>
        <_>
          23 4 4 9 -1.</_>
        <_>
          23 7 4 3 3.</_></rects>
      <tilted>0</tilted></_>
    <_>
      <rects>
        <_>
          26 2 6 27 -1.</_>
        <_>
          26 11 6 9 3.</_></rects>
      <tilted>0</tilted></_>
    <_>
      <rects>
        <_>
          26 12 1 15 -1.</_>
        <_>
          26 17 1 5 3.</_></rects>
      <tilted>0</tilted></_>
    <_>
      <rects>
        <_>
          26 31 6 1 -1.</_>
        <_>
          28 31 2 1 3.</_></rects>
      <tilted>0</tilted></_>
    <_>
      <rects>
        <_>
          27 1 1 30 -1.</_>
        <_>
          27 11 1 10 3.</_></rects>
      <tilted>0</tilted></_>
    <_>
      <rects>
        <_>
          27 22 5 8 -1.</_>
        <_>
          27 26 5 4 2.</_></rects>
      <tilted>0</tilted></_>
    <_>
      <rects>
        <_>
          27 30 4 1 -1.</_>
        <_>
          29 30 2 1 2.</_></rects>
      <tilted>0</tilted></_>
    <_>
      <rects>
        <_>
          28 3 2 10 -1.</_>
        <_>
          29 3 1 10 2.</_></rects>
      <tilted>0</tilted></_>
    <_>
      <rects>
        <_>
          28 26 2 6 -1.</_>
        <_>
          28 28 2 2 3.</_></rects>
      <tilted>0</tilted></_>
    <_>
      <rects>
        <_>
          29 5 1 2 -1.</_>
        <_>
          29 6 1 1 2.</_></rects>
      <tilted>0</tilted></_>
    <_>
      <rects>
        <_>
          29 29 1 3 -1.</_>
        <_>
          29 30 1 1 3.</_></rects>
      <tilted>0</tilted></_></features></cascade>
</opencv_storage>
