<?xml version="1.0"?>
<opencv_storage>
<cascade>
  <stageType>BOOST</stageType>
  <featureType>HAAR</featureType>
  <height>32</height>
  <width>32</width>
  <stageParams>
    <boostType>GAB</boostType>
    <minHitRate>9.9500000476837158e-01</minHitRate>
    <maxFalseAlarm>5.0000000000000000e-01</maxFalseAlarm>
    <weightTrimRate>9.4999998807907104e-01</weightTrimRate>
    <maxDepth>1</maxDepth>
    <maxWeakCount>100</maxWeakCount></stageParams>
  <featureParams>
    <maxCatCount>0</maxCatCount>
    <featSize>1</featSize>
    <mode>BASIC</mode></featureParams>
  <stageNum>10</stageNum>
  <stages>
    <!-- stage 0 -->
    <_>
      <maxWeakCount>3</maxWeakCount>
      <stageThreshold>-1.2561299800872803e+00</stageThreshold>
      <weakClassifiers>
        <_>
          <internalNodes>
            0 -1 19 -3.2395914196968079e-02</internalNodes>
          <leafValues>
            6.8421053886413574e-01 -9.0039843320846558e-01</leafValues></_>
        <_>
          <internalNodes>
            0 -1 17 -2.1744217723608017e-02</internalNodes>
          <leafValues>
            5.9368807077407837e-01 -7.9210084676742554e-01</leafValues></_>
        <_>
          <internalNodes>
            0 -1 2 7.9506996553391218e-04</internalNodes>
          <leafValues>
            -9.4941967725753784e-01 5.2593970298767090e-01</leafValues></_></weakClassifiers></_>
    <!-- stage 1 -->
    <_>
      <maxWeakCount>3</maxWeakCount>
      <stageThreshold>-1.6542402505874634e+00</stageThreshold>
      <weakClassifiers>
        <_>
          <internalNodes>
            0 -1 5 -2.0488734543323517e-01</internalNodes>
          <leafValues>
            1. -8.7866926193237305e-01</leafValues></_>
        <_>
          <internalNodes>
            0 -1 8 4.5974028762429953e-04</internalNodes>
          <leafValues>
            -9.6637445688247681e-01 1.0450506210327148e-01</leafValues></_>
        <_>
          <internalNodes>
            0 -1 31 2.1194647706579417e-04</internalNodes>
          <leafValues>
            -1. 1.9080354273319244e-01</leafValues></_></weakClassifiers></_>
    <!-- stage 2 -->
    <_>
      <maxWeakCount>2</maxWeakCount>
      <stageThreshold>-8.0825662612915039e-01</stageThreshold>
      <weakClassifiers>
        <_>
          <internalNodes>
            0 -1 16 -1.0161908715963364e-01</internalNodes>
          <leafValues>
            8.4615385532379150e-01 -8.8582676649093628e-01</leafValues></_>
        <_>
          <internalNodes>
            0 -1 7 7.4733910150825977e-04</internalNodes>
          <leafValues>
            -9.8129624128341675e-01 7.7570170164108276e-02</leafValues></_></weakClassifiers></_>
    <!-- stage 3 -->
    <_>
      <maxWeakCount>4</maxWeakCount>
      <stageThreshold>-1.3204218149185181e+00</stageThreshold>
      <weakClassifiers>
        <_>
          <internalNodes>
            0 -1 15 -1.2191024422645569e-01</internalNodes>
          <leafValues>
            5.5555558204650879e-01 -8.9264410734176636e-01</leafValues></_>
        <_>
          <internalNodes>
            0 -1 25 2.8159087523818016e-03</internalNodes>
          <leafValues>
            -8.8906896114349365e-01 1.2715968489646912e-01</leafValues></_>
        <_>
          <internalNodes>
            0 -1 3 1.7657635733485222e-02</internalNodes>
          <leafValues>
            -8.7564855813980103e-01 3.0283072590827942e-01</leafValues></_>
        <_>
          <internalNodes>
            0 -1 32 -9.3294067482929677e-05</internalNodes>
          <leafValues>
            3.2071122527122498e-01 -9.6162015199661255e-01</leafValues></_></weakClassifiers></_>
    <!-- stage 4 -->
    <_>
      <maxWeakCount>4</maxWeakCount>
      <stageThreshold>-1.5144165754318237e+00</stageThreshold>
      <weakClassifiers>
        <_>
          <internalNodes>
            0 -1 18 3.9679404348134995e-02</internalNodes>
          <leafValues>
            -8.8932806253433228e-01 7.3333334922790527e-01</leafValues></_>
        <_>
          <internalNodes>
            0 -1 4 1.1678060982376337e-03</internalNodes>
          <leafValues>
            -1.7773723229765892e-02 -9.4795382022857666e-01</leafValues></_>
        <_>
          <internalNodes>
            0 -1 10 2.0957332104444504e-02</internalNodes>
          <leafValues>
            -8.7256783246994019e-01 2.8595128655433655e-01</leafValues></_>
        <_>
          <internalNodes>
            0 -1 11 -5.5116084695328027e-05</internalNodes>
          <leafValues>
            -1. 2.6525312662124634e-01</leafValues></_></weakClassifiers></_>
    <!-- stage 5 -->
    <_>
      <maxWeakCount>3</maxWeakCount>
      <stageThreshold>-1.3627125024795532e+00</stageThreshold>
      <weakClassifiers>
        <_>
          <internalNodes>
            0 -1 28 -1.6535699367523193e-02</internalNodes>
          <leafValues>
            1. -8.7866926193237305e-01</leafValues></_>
        <_>
          <internalNodes>
            0 -1 26 6.3812527805566788e-03</internalNodes>
          <leafValues>
            -7.7175855636596680e-01 2.5938269495964050e-01</leafValues></_>
        <_>
          <internalNodes>
            0 -1 20 -1.5608159592375159e-03</internalNodes>
          <leafValues>
            4.4378569722175598e-01 -7.4342596530914307e-01</leafValues></_></weakClassifiers></_>
    <!-- stage 6 -->
    <_>
      <maxWeakCount>3</maxWeakCount>
      <stageThreshold>-1.3439360857009888e+00</stageThreshold>
      <weakClassifiers>
        <_>
          <internalNodes>
            0 -1 30 1.5406995080411434e-02</internalNodes>
          <leafValues>
            -8.7866926193237305e-01 1.</leafValues></_>
        <_>
          <internalNodes>
            0 -1 22 3.5282950848340988e-02</internalNodes>
          <leafValues>
            -6.8613898754119873e-01 3.8266757130622864e-01</leafValues></_>
        <_>
          <internalNodes>
            0 -1 0 4.1696999687701464e-04</internalNodes>
          <leafValues>
            -8.4793442487716675e-01 4.0297707915306091e-01</leafValues></_></weakClassifiers></_>
    <!-- stage 7 -->
    <_>
      <maxWeakCount>4</maxWeakCount>
      <stageThreshold>-9.9696624279022217e-01</stageThreshold>
      <weakClassifiers>
        <_>
          <internalNodes>
            0 -1 27 -2.8770357370376587e-02</internalNodes>
          <leafValues>
            1. -8.7500000000000000e-01</leafValues></_>
        <_>
          <internalNodes>
            0 -1 23 3.5913246683776379e-03</internalNodes>
          <leafValues>
            -8.3260458707809448e-01 1.8925257027149200e-01</leafValues></_>
        <_>
          <internalNodes>
            0 -1 14 2.1145911887288094e-04</internalNodes>
          <leafValues>
            -8.7283700704574585e-01 2.7367985248565674e-01</leafValues></_>
        <_>
          <internalNodes>
            0 -1 13 1.4864074066281319e-02</internalNodes>
          <leafValues>
            -5.8489865064620972e-01 5.9647423028945923e-01</leafValues></_></weakClassifiers></_>
    <!-- stage 8 -->
    <_>
      <maxWeakCount>4</maxWeakCount>
      <stageThreshold>-1.3840610980987549e+00</stageThreshold>
      <weakClassifiers>
        <_>
          <internalNodes>
            0 -1 21 -3.1652685254812241e-02</internalNodes>
          <leafValues>
            1. -8.7866926193237305e-01</leafValues></_>
        <_>
          <internalNodes>
            0 -1 29 -1.6018858877941966e-04</internalNodes>
          <leafValues>
            -9.3348145484924316e-01 8.0718874931335449e-02</leafValues></_>
        <_>
          <internalNodes>
            0 -1 6 -9.6218231192324311e-05</internalNodes>
          <leafValues>
            -9.2044633626937866e-01 2.9438659548759460e-01</leafValues></_>
        <_>
          <internalNodes>
            0 -1 12 5.9001526096835732e-05</internalNodes>
          <leafValues>
            -8.6111223697662354e-01 3.3433559536933899e-01</leafValues></_></weakClassifiers></_>
    <!-- stage 9 -->
    <_>
      <maxWeakCount>3</maxWeakCount>
      <stageThreshold>-1.2467974424362183e+00</stageThreshold>
      <weakClassifiers>
        <_>
          <internalNodes>
            0 -1 1 1.1400109529495239e-01</internalNodes>
          <leafValues>
            -9.0763050317764282e-01 5.6521737575531006e-01</leafValues></_>
        <_>
          <internalNodes>
            0 -1 24 9.5146168023347855e-03</internalNodes>
          <leafValues>
            -6.6583305597305298e-01 7.4676436185836792e-01</leafValues></_>
        <_>
          <internalNodes>
            0 -1 9 -1.0498173069208860e-03</internalNodes>
          <leafValues>
            -1. 3.2666617631912231e-01</leafValues></_></weakClassifiers></_></stages>
  <features>
    <_>
      <rects>
        <_>
          0 0 2 5 -1.</_>
        <_>
          1 0 1 5 2.</_></rects>
      <tilted>0</tilted></_>
    <_>
      <rects>
        <_>
          0 0 26 9 -1.</_>
        <_>
          13 0 13 9 2.</_></rects>
      <tilted>0</tilted></_>
    <_>
      <rects>
        <_>
          0 2 6 1 -1.</_>
        <_>
          3 2 3 1 2.</_></rects>
      <tilted>0</tilted></_>
    <_>
      <rects>
        <_>
          0 2 6 30 -1.</_>
        <_>
          0 12 6 10 3.</_></rects>
      <tilted>0</tilted></_>
    <_>
      <rects>
        <_>
          0 6 2 24 -1.</_>
        <_>
          0 6 1 12 2.</_>
        <_>
          1 18 1 12 2.</_></rects>
      <tilted>0</tilted></_>
    <_>
      <rects>
        <_>
          0 11 23 9 -1.</_>
        <_>
          0 14 23 3 3.</_></rects>
      <tilted>0</tilted></_>
    <_>
      <rects>
        <_>
          0 21 1 9 -1.</_>
        <_>
          0 24 1 3 3.</_></rects>
      <tilted>0</tilted></_>
    <_>
      <rects>
        <_>
          0 21 2 8 -1.</_>
        <_>
          1 21 1 8 2.</_></rects>
      <tilted>0</tilted></_>
    <_>
      <rects>
        <_>
          0 22 2 5 -1.</_>
        <_>
          1 22 1 5 2.</_></rects>
      <tilted>0</tilted></_>
    <_>
      <rects>
        <_>
          1 6 6 4 -1.</_>
        <_>
          3 6 2 4 3.</_></rects>
      <tilted>0</tilted></_>
    <_>
      <rects>
        <_>
          1 13 15 15 -1.</_>
        <_>
          1 18 15 5 3.</_></rects>
      <tilted>0</tilted></_>
    <_>
      <rects>
        <_>
          3 3 5 2 -1.</_>
        <_>
          3 4 5 1 2.</_></rects>
      <tilted>0</tilted></_>
    <_>
      <rects>
        <_>
          5 0 4 3 -1.</_>
        <_>
          5 1 4 1 3.</_></rects>
      <tilted>0</tilted></_>
    <_>
      <rects>
        <_>
          6 15 12 3 -1.</_>
        <_>
          10 15 4 3 3.</_></rects>
      <tilted>0</tilted></_>
    <_>
      <rects>
        <_>
          7 0 1 4 -1.</_>
        <_>
          7 2 1 2 2.</_></rects>
      <tilted>0</tilted></_>
    <_>
      <rects>
        <_>
          8 9 15 12 -1.</_>
        <_>
          8 13 15 4 3.</_></rects>
      <tilted>0</tilted></_>
    <_>
      <rects>
        <_>
          9 8 10 12 -1.</_>
        <_>
          9 12 10 4 3.</_></rects>
      <tilted>0</tilted></_>
    <_>
      <rects>
        <_>
          10 14 12 3 -1.</_>
        <_>
          14 14 4 3 3.</_></rects>
      <tilted>0</tilted></_>
    <_>
      <rects>
        <_>
          10 14 14 8 -1.</_>
        <_>
          10 14 7 4 2.</_>
        <_>
          17 18 7 4 2.</_></rects>
      <tilted>0</tilted></_>
    <_>
      <rects>
        <_>
          13 13 8 6 -1.</_>
        <_>
          13 15 8 2 3.</_></rects>
      <tilted>0</tilted></_>
    <_>
      <rects>
        <_>
          13 28 4 4 -1.</_>
        <_>
          13 30 4 2 2.</_></rects>
      <tilted>0</tilted></_>
    <_>
      <rects>
        <_>
          14 6 8 10 -1.</_>
        <_>
          14 6 4 5 2.</_>
        <_>
          18 11 4 5 2.</_></rects>
      <tilted>0</tilted></_>
    <_>
      <rects>
        <_>
          14 7 9 12 -1.</_>
        <_>
          14 11 9 4 3.</_></rects>
      <tilted>0</tilted></_>
    <_>
      <rects>
        <_>
          14 16 3 6 -1.</_>
        <_>
          14 18 3 2 3.</_></rects>
      <tilted>0</tilted></_>
    <_>
      <rects>
        <_>
          15 8 2 12 -1.</_>
        <_>
          15 12 2 4 3.</_></rects>
      <tilted>0</tilted></_>
    <_>
      <rects>
        <_>
          15 15 12 1 -1.</_>
        <_>
          19 15 4 1 3.</_></rects>
      <tilted>0</tilted></_>
    <_>
      <rects>
        <_>
          16 14 6 4 -1.</_>
        <_>
          18 14 2 4 3.</_></rects>
      <tilted>0</tilted></_>
    <_>
      <rects>
        <_>
          18 12 6 8 -1.</_>
        <_>
          18 12 3 4 2.</_>
        <_>
          21 16 3 4 2.</_></rects>
      <tilted>0</tilted></_>
    <_>
      <rects>
        <_>
          18 15 6 4 -1.</_>
        <_>
          18 15 3 2 2.</_>
        <_>
          21 17 3 2 2.</_></rects>
      <tilted>0</tilted></_>
    <_>
      <rects>
        <_>
          19 0 13 3 -1.</_>
        <_>
          19 1 13 1 3.</_></rects>
      <tilted>0</tilted></_>
    <_>
      <rects>
        <_>
          19 12 1 12 -1.</_>
        <_>
          19 18 1 6 2.</_></rects>
      <tilted>0</tilted></_>
    <_>
      <rects>
        <_>
          21 1 9 2 -1.</_>
        <_>
          21 2 9 1 2.</_></rects>
      <tilted>0</tilted></_>
    <_>
      <rects>
        <_>
          28 24 4 1 -1.</_>
        <_>
          30 24 2 1 2.</_></rects>
      <tilted>0</tilted></_></features></cascade>
</opencv_storage>
