<?xml version="1.0"?>
<opencv_storage>
<stage16>
  <maxWeakCount>6</maxWeakCount>
  <stageThreshold>-1.1226477622985840e+00</stageThreshold>
  <weakClassifiers>
    <_>
      <internalNodes>
        0 -1 345529 2.6510979514569044e-03</internalNodes>
      <leafValues>
        -7.0399999618530273e-01 4.4444444775581360e-01</leafValues></_>
    <_>
      <internalNodes>
        0 -1 379674 1.1786373797804117e-03</internalNodes>
      <leafValues>
        -5.1852345466613770e-01 3.7937077879905701e-01</leafValues></_>
    <_>
      <internalNodes>
        0 -1 93983 -1.3773282989859581e-02</internalNodes>
      <leafValues>
        6.0885560512542725e-01 -3.1656631827354431e-01</leafValues></_>
    <_>
      <internalNodes>
        0 -1 21348 -1.0382995242252946e-04</internalNodes>
      <leafValues>
        -6.1392432451248169e-01 3.7097933888435364e-01</leafValues></_>
    <_>
      <internalNodes>
        0 -1 171893 -4.8076770326588303e-05</internalNodes>
      <leafValues>
        4.1968849301338196e-01 -4.8230358958244324e-01</leafValues></_>
    <_>
      <internalNodes>
        0 -1 352805 -9.0320991148473695e-06</internalNodes>
      <leafValues>
        5.4313129186630249e-01 -3.7012797594070435e-01</leafValues></_></weakClassifiers></stage16>
</opencv_storage>
