<?xml version="1.0"?>
<opencv_storage>
<stage3>
  <maxWeakCount>5</maxWeakCount>
  <stageThreshold>-1.0964254140853882e+00</stageThreshold>
  <weakClassifiers>
    <_>
      <internalNodes>
        0 -1 419870 -3.4272824414074421e-03</internalNodes>
      <leafValues>
        4.1666665673255920e-01 -7.2950822114944458e-01</leafValues></_>
    <_>
      <internalNodes>
        0 -1 164692 3.4880866296589375e-03</internalNodes>
      <leafValues>
        -4.7564297914505005e-01 4.2973986268043518e-01</leafValues></_>
    <_>
      <internalNodes>
        0 -1 290913 -9.5254115876741707e-05</internalNodes>
      <leafValues>
        -8.4005743265151978e-01 2.4948643147945404e-01</leafValues></_>
    <_>
      <internalNodes>
        0 -1 431079 -3.0289415735751390e-04</internalNodes>
      <leafValues>
        6.2633311748504639e-01 -3.5440874099731445e-01</leafValues></_>
    <_>
      <internalNodes>
        0 -1 506626 -3.7190791772445664e-05</internalNodes>
      <leafValues>
        -6.9173473119735718e-01 3.7312874197959900e-01</leafValues></_></weakClassifiers></stage3>
</opencv_storage>
