<?xml version="1.0"?>
<opencv_storage>
<stage0>
  <maxWeakCount>5</maxWeakCount>
  <stageThreshold>-1.4389255046844482e+00</stageThreshold>
  <weakClassifiers>
    <_>
      <internalNodes>
        0 -1 420709 2.4463113397359848e-02</internalNodes>
      <leafValues>
        -7.2332018613815308e-01 1.</leafValues></_>
    <_>
      <internalNodes>
        0 -1 380828 2.4494444951415062e-03</internalNodes>
      <leafValues>
        -5.6044042110443115e-01 4.5072385668754578e-01</leafValues></_>
    <_>
      <internalNodes>
        0 -1 222555 -2.8437716537155211e-04</internalNodes>
      <leafValues>
        -9.2854726314544678e-01 3.0201071500778198e-01</leafValues></_>
    <_>
      <internalNodes>
        0 -1 71462 -7.5694799306802452e-05</internalNodes>
      <leafValues>
        -6.5893924236297607e-01 3.5858264565467834e-01</leafValues></_>
    <_>
      <internalNodes>
        0 -1 111098 -2.7015418163500726e-04</internalNodes>
      <leafValues>
        -8.0940067768096924e-01 3.4402516484260559e-01</leafValues></_></weakClassifiers></stage0>
</opencv_storage>
