<?xml version="1.0"?>
<opencv_storage>
<stage7>
  <maxWeakCount>6</maxWeakCount>
  <stageThreshold>-1.1670031547546387e+00</stageThreshold>
  <weakClassifiers>
    <_>
      <internalNodes>
        0 -1 420414 -7.9277278855443001e-03</internalNodes>
      <leafValues>
        6.1904764175415039e-01 -7.3279350996017456e-01</leafValues></_>
    <_>
      <internalNodes>
        0 -1 382584 -3.5409564152359962e-03</internalNodes>
      <leafValues>
        7.6123172044754028e-01 -4.2674061655998230e-01</leafValues></_>
    <_>
      <internalNodes>
        0 -1 245866 -7.5576310337055475e-05</internalNodes>
      <leafValues>
        -8.1572878360748291e-01 3.6267825961112976e-01</leafValues></_>
    <_>
      <internalNodes>
        0 -1 375291 1.5050608199089766e-03</internalNodes>
      <leafValues>
        -4.0067499876022339e-01 6.6256040334701538e-01</leafValues></_>
    <_>
      <internalNodes>
        0 -1 345296 -1.3697515241801739e-03</internalNodes>
      <leafValues>
        6.8488204479217529e-01 -3.4075880050659180e-01</leafValues></_>
    <_>
      <internalNodes>
        0 -1 18956 -4.2020962573587894e-03</internalNodes>
      <leafValues>
        4.5226100087165833e-01 -6.5435427427291870e-01</leafValues></_></weakClassifiers></stage7>
</opencv_storage>
