<?xml version="1.0"?>
<opencv_storage>
<stage10>
  <maxWeakCount>5</maxWeakCount>
  <stageThreshold>-1.1696532964706421e+00</stageThreshold>
  <weakClassifiers>
    <_>
      <internalNodes>
        0 -1 171857 4.1416008025407791e-02</internalNodes>
      <leafValues>
        -6.9649803638458252e-01 1.</leafValues></_>
    <_>
      <internalNodes>
        0 -1 508020 2.3475215130019933e-05</internalNodes>
      <leafValues>
        1.1608894169330597e-01 -8.5092991590499878e-01</leafValues></_>
    <_>
      <internalNodes>
        0 -1 467029 -2.7308356948196888e-05</internalNodes>
      <leafValues>
        3.6624574661254883e-01 -5.4373681545257568e-01</leafValues></_>
    <_>
      <internalNodes>
        0 -1 294541 -1.4138142578303814e-03</internalNodes>
      <leafValues>
        5.1370644569396973e-01 -4.2203906178474426e-01</leafValues></_>
    <_>
      <internalNodes>
        0 -1 344405 9.2715235950890929e-06</internalNodes>
      <leafValues>
        -5.2859479188919067e-01 3.7653174996376038e-01</leafValues></_></weakClassifiers></stage10>
</opencv_storage>
