<?xml version="1.0"?>
<opencv_storage>
<stage11>
  <maxWeakCount>5</maxWeakCount>
  <stageThreshold>-1.0779005289077759e+00</stageThreshold>
  <weakClassifiers>
    <_>
      <internalNodes>
        0 -1 489908 1.1620327830314636e-02</internalNodes>
      <leafValues>
        -7.3333334922790527e-01 2.8571429848670959e-01</leafValues></_>
    <_>
      <internalNodes>
        0 -1 130892 2.0759047940373421e-02</internalNodes>
      <leafValues>
        -3.9293155074119568e-01 6.9035720825195313e-01</leafValues></_>
    <_>
      <internalNodes>
        0 -1 62243 5.8378092944622040e-05</internalNodes>
      <leafValues>
        -4.9220576882362366e-01 4.3284940719604492e-01</leafValues></_>
    <_>
      <internalNodes>
        0 -1 449516 2.1298712817952037e-04</internalNodes>
      <leafValues>
        3.3200514316558838e-01 -6.4101976156234741e-01</leafValues></_>
    <_>
      <internalNodes>
        0 -1 159204 1.1725160584319383e-04</internalNodes>
      <leafValues>
        2.5653472542762756e-01 -9.2124307155609131e-01</leafValues></_></weakClassifiers></stage11>
</opencv_storage>
