<?xml version="1.0"?>
<opencv_storage>
<stage1>
  <maxWeakCount>6</maxWeakCount>
  <stageThreshold>-1.4891482591629028e+00</stageThreshold>
  <weakClassifiers>
    <_>
      <internalNodes>
        0 -1 338072 -1.7670446634292603e-01</internalNodes>
      <leafValues>
        3.3333334326744080e-01 -8.4466022253036499e-01</leafValues></_>
    <_>
      <internalNodes>
        0 -1 277334 -5.6762639433145523e-02</internalNodes>
      <leafValues>
        3.1522145867347717e-01 -5.6543838977813721e-01</leafValues></_>
    <_>
      <internalNodes>
        0 -1 289648 -8.0026971409097314e-04</internalNodes>
      <leafValues>
        -1. 1.4853693544864655e-01</leafValues></_>
    <_>
      <internalNodes>
        0 -1 344213 -2.4212440475821495e-03</internalNodes>
      <leafValues>
        4.8904448747634888e-01 -3.7912377715110779e-01</leafValues></_>
    <_>
      <internalNodes>
        0 -1 343132 2.6726140640676022e-03</internalNodes>
      <leafValues>
        -2.5065049529075623e-01 7.1054738759994507e-01</leafValues></_>
    <_>
      <internalNodes>
        0 -1 383464 3.5332861443748698e-05</internalNodes>
      <leafValues>
        4.0218770503997803e-01 -4.4650062918663025e-01</leafValues></_></weakClassifiers></stage1>
</opencv_storage>
