<?xml version="1.0"?>
<opencv_storage>
<stage6>
  <maxWeakCount>6</maxWeakCount>
  <stageThreshold>-1.5749948024749756e+00</stageThreshold>
  <weakClassifiers>
    <_>
      <internalNodes>
        0 -1 284305 2.5577656924724579e-02</internalNodes>
      <leafValues>
        -8.3206105232238770e-01 1.</leafValues></_>
    <_>
      <internalNodes>
        0 -1 359236 6.6448356956243515e-03</internalNodes>
      <leafValues>
        -5.0201481580734253e-01 4.2614370584487915e-01</leafValues></_>
    <_>
      <internalNodes>
        0 -1 92013 -8.2549768194439821e-06</internalNodes>
      <leafValues>
        -6.9560539722442627e-01 2.1714250743389130e-01</leafValues></_>
    <_>
      <internalNodes>
        0 -1 425946 -1.4631992671638727e-03</internalNodes>
      <leafValues>
        5.1471805572509766e-01 -2.8807970881462097e-01</leafValues></_>
    <_>
      <internalNodes>
        0 -1 381814 8.7337737204506993e-04</internalNodes>
      <leafValues>
        -3.9794969558715820e-01 3.5888919234275818e-01</leafValues></_>
    <_>
      <internalNodes>
        0 -1 61602 6.8884757638443261e-05</internalNodes>
      <leafValues>
        3.5410037636756897e-01 -5.2887099981307983e-01</leafValues></_></weakClassifiers></stage6>
</opencv_storage>
